digraph Tree {
node [shape=box, style="filled, rounded", color="black", fontname="helvetica"] ;
edge [fontname="helvetica"] ;
0 [label=<tempo_emprego &le; 4.955<br/>gini = 0.085<br/>samples = 4739<br/>value = [4528, 211]<br/>class = Aprovado>, fillcolor="#e68742"] ;
1 [label=<tempo_emprego &le; 4.949<br/>gini = 0.099<br/>samples = 2594<br/>value = [2458, 136]<br/>class = Aprovado>, fillcolor="#e68844"] ;
0 -> 1 [labeldistance=2.5, labelangle=45, headlabel="True"] ;
2 [label=<posse_de_imovel &le; 0.5<br/>gini = 0.099<br/>samples = 2592<br/>value = [2457, 135]<br/>class = Aprovado>, fillcolor="#e68844"] ;
1 -> 2 ;
3 [label=<estado_civil_Widow &le; 0.5<br/>gini = 0.128<br/>samples = 815<br/>value = [759.0, 56.0]<br/>class = Aprovado>, fillcolor="#e78a48"] ;
2 -> 3 ;
4 [label=<tempo_emprego &le; 4.647<br/>gini = 0.117<br/>samples = 770<br/>value = [722, 48]<br/>class = Aprovado>, fillcolor="#e78946"] ;
3 -> 4 ;
5 [label=<tipo_residencia_Municipal apartment &le; 0.5<br/>gini = 0.108<br/>samples = 733<br/>value = [691, 42]<br/>class = Aprovado>, fillcolor="#e78945"] ;
4 -> 5 ;
6 [label=<tipo_residencia_Office apartment &le; 0.5<br/>gini = 0.099<br/>samples = 688<br/>value = [652, 36]<br/>class = Aprovado>, fillcolor="#e68844"] ;
5 -> 6 ;
7 [label=<tempo_emprego &le; 3.816<br/>gini = 0.095<br/>samples = 679<br/>value = [645, 34]<br/>class = Aprovado>, fillcolor="#e68843"] ;
6 -> 7 ;
8 [label=<possui_fone_comercial &le; 0.5<br/>gini = 0.083<br/>samples = 576<br/>value = [551, 25]<br/>class = Aprovado>, fillcolor="#e68742"] ;
7 -> 8 ;
9 [label=<tempo_emprego &le; 0.762<br/>gini = 0.064<br/>samples = 422<br/>value = [408.0, 14.0]<br/>class = Aprovado>, fillcolor="#e68540"] ;
8 -> 9 ;
10 [label=<tempo_emprego &le; 0.753<br/>gini = 0.093<br/>samples = 224<br/>value = [213, 11]<br/>class = Aprovado>, fillcolor="#e68843"] ;
9 -> 10 ;
11 [label=<posse_de_veiculo &le; 0.5<br/>gini = 0.086<br/>samples = 222<br/>value = [212, 10]<br/>class = Aprovado>, fillcolor="#e68742"] ;
10 -> 11 ;
12 [label=<estado_civil_Separated &le; 0.5<br/>gini = 0.052<br/>samples = 151<br/>value = [147, 4]<br/>class = Aprovado>, fillcolor="#e6843e"] ;
11 -> 12 ;
13 [label=<idade &le; 62.19<br/>gini = 0.029<br/>samples = 136<br/>value = [134, 2]<br/>class = Aprovado>, fillcolor="#e5833c"] ;
12 -> 13 ;
14 [label=<gini = 0.0<br/>samples = 99<br/>value = [99, 0]<br/>class = Aprovado>, fillcolor="#e58139"] ;
13 -> 14 ;
15 [label=<idade &le; 62.253<br/>gini = 0.102<br/>samples = 37<br/>value = [35, 2]<br/>class = Aprovado>, fillcolor="#e68844"] ;
13 -> 15 ;
16 [label=<gini = 0.0<br/>samples = 1<br/>value = [0, 1]<br/>class = Reprovado>, fillcolor="#399de5"] ;
15 -> 16 ;
17 [label=<tipo_renda_Working &le; 0.5<br/>gini = 0.054<br/>samples = 36<br/>value = [35, 1]<br/>class = Aprovado>, fillcolor="#e6853f"] ;
15 -> 17 ;
18 [label=<gini = 0.0<br/>samples = 34<br/>value = [34, 0]<br/>class = Aprovado>, fillcolor="#e58139"] ;
17 -> 18 ;
19 [label=<gini = 0.5<br/>samples = 2<br/>value = [1, 1]<br/>class = Aprovado>, fillcolor="#ffffff"] ;
17 -> 19 ;
20 [label=<possui_fone &le; 0.5<br/>gini = 0.231<br/>samples = 15<br/>value = [13, 2]<br/>class = Aprovado>, fillcolor="#e99457"] ;
12 -> 20 ;
21 [label=<qtd_filhos &le; 0.5<br/>gini = 0.142<br/>samples = 13<br/>value = [12, 1]<br/>class = Aprovado>, fillcolor="#e78c49"] ;
20 -> 21 ;
22 [label=<gini = 0.0<br/>samples = 10<br/>value = [10, 0]<br/>class = Aprovado>, fillcolor="#e58139"] ;
21 -> 22 ;
23 [label=<qtd_filhos &le; 1.5<br/>gini = 0.444<br/>samples = 3<br/>value = [2, 1]<br/>class = Aprovado>, fillcolor="#f2c09c"] ;
21 -> 23 ;
24 [label=<gini = 0.5<br/>samples = 2<br/>value = [1, 1]<br/>class = Aprovado>, fillcolor="#ffffff"] ;
23 -> 24 ;
25 [label=<gini = 0.0<br/>samples = 1<br/>value = [1, 0]<br/>class = Aprovado>, fillcolor="#e58139"] ;
23 -> 25 ;
26 [label=<idade &le; 63.508<br/>gini = 0.5<br/>samples = 2<br/>value = [1, 1]<br/>class = Aprovado>, fillcolor="#ffffff"] ;
20 -> 26 ;
27 [label=<gini = 0.0<br/>samples = 1<br/>value = [0, 1]<br/>class = Reprovado>, fillcolor="#399de5"] ;
26 -> 27 ;
28 [label=<gini = 0.0<br/>samples = 1<br/>value = [1, 0]<br/>class = Aprovado>, fillcolor="#e58139"] ;
26 -> 28 ;
29 [label=<idade &le; 63.714<br/>gini = 0.155<br/>samples = 71<br/>value = [65, 6]<br/>class = Aprovado>, fillcolor="#e78d4b"] ;
11 -> 29 ;
30 [label=<idade &le; 39.055<br/>gini = 0.121<br/>samples = 62<br/>value = [58, 4]<br/>class = Aprovado>, fillcolor="#e78a47"] ;
29 -> 30 ;
31 [label=<tempo_emprego &le; 0.281<br/>gini = 0.255<br/>samples = 20<br/>value = [17, 3]<br/>class = Aprovado>, fillcolor="#ea975c"] ;
30 -> 31 ;
32 [label=<gini = 0.5<br/>samples = 2<br/>value = [1, 1]<br/>class = Aprovado>, fillcolor="#ffffff"] ;
31 -> 32 ;
33 [label=<tempo_emprego &le; 0.537<br/>gini = 0.198<br/>samples = 18<br/>value = [16, 2]<br/>class = Aprovado>, fillcolor="#e89152"] ;
31 -> 33 ;
34 [label=<gini = 0.0<br/>samples = 9<br/>value = [9, 0]<br/>class = Aprovado>, fillcolor="#e58139"] ;
33 -> 34 ;
35 [label=<tempo_emprego &le; 0.544<br/>gini = 0.346<br/>samples = 9<br/>value = [7, 2]<br/>class = Aprovado>, fillcolor="#eca572"] ;
33 -> 35 ;
36 [label=<gini = 0.0<br/>samples = 1<br/>value = [0, 1]<br/>class = Reprovado>, fillcolor="#399de5"] ;
35 -> 36 ;
37 [label=<tipo_renda_Working &le; 0.5<br/>gini = 0.219<br/>samples = 8<br/>value = [7, 1]<br/>class = Aprovado>, fillcolor="#e99355"] ;
35 -> 37 ;
38 [label=<idade &le; 32.374<br/>gini = 0.444<br/>samples = 3<br/>value = [2, 1]<br/>class = Aprovado>, fillcolor="#f2c09c"] ;
37 -> 38 ;
39 [label=<gini = 0.5<br/>samples = 2<br/>value = [1, 1]<br/>class = Aprovado>, fillcolor="#ffffff"] ;
38 -> 39 ;
40 [label=<gini = 0.0<br/>samples = 1<br/>value = [1, 0]<br/>class = Aprovado>, fillcolor="#e58139"] ;
38 -> 40 ;
41 [label=<gini = 0.0<br/>samples = 5<br/>value = [5, 0]<br/>class = Aprovado>, fillcolor="#e58139"] ;
37 -> 41 ;
42 [label=<educacao_Higher education &le; 0.5<br/>gini = 0.046<br/>samples = 42<br/>value = [41, 1]<br/>class = Aprovado>, fillcolor="#e6843e"] ;
30 -> 42 ;
43 [label=<gini = 0.0<br/>samples = 38<br/>value = [38, 0]<br/>class = Aprovado>, fillcolor="#e58139"] ;
42 -> 43 ;
44 [label=<idade &le; 54.625<br/>gini = 0.375<br/>samples = 4<br/>value = [3, 1]<br/>class = Aprovado>, fillcolor="#eeab7b"] ;
42 -> 44 ;
45 [label=<gini = 0.0<br/>samples = 2<br/>value = [2, 0]<br/>class = Aprovado>, fillcolor="#e58139"] ;
44 -> 45 ;
46 [label=<idade &le; 58.952<br/>gini = 0.5<br/>samples = 2<br/>value = [1, 1]<br/>class = Aprovado>, fillcolor="#ffffff"] ;
44 -> 46 ;
47 [label=<gini = 0.0<br/>samples = 1<br/>value = [0, 1]<br/>class = Reprovado>, fillcolor="#399de5"] ;
46 -> 47 ;
48 [label=<gini = 0.0<br/>samples = 1<br/>value = [1, 0]<br/>class = Aprovado>, fillcolor="#e58139"] ;
46 -> 48 ;
49 [label=<idade &le; 63.974<br/>gini = 0.346<br/>samples = 9<br/>value = [7, 2]<br/>class = Aprovado>, fillcolor="#eca572"] ;
29 -> 49 ;
50 [label=<gini = 0.0<br/>samples = 1<br/>value = [0, 1]<br/>class = Reprovado>, fillcolor="#399de5"] ;
49 -> 50 ;
51 [label=<possui_fone &le; 0.5<br/>gini = 0.219<br/>samples = 8<br/>value = [7, 1]<br/>class = Aprovado>, fillcolor="#e99355"] ;
49 -> 51 ;
52 [label=<gini = 0.0<br/>samples = 5<br/>value = [5, 0]<br/>class = Aprovado>, fillcolor="#e58139"] ;
51 -> 52 ;
53 [label=<estado_civil_Married &le; 0.5<br/>gini = 0.444<br/>samples = 3<br/>value = [2, 1]<br/>class = Aprovado>, fillcolor="#f2c09c"] ;
51 -> 53 ;
54 [label=<gini = 0.0<br/>samples = 1<br/>value = [1, 0]<br/>class = Aprovado>, fillcolor="#e58139"] ;
53 -> 54 ;
55 [label=<gini = 0.5<br/>samples = 2<br/>value = [1, 1]<br/>class = Aprovado>, fillcolor="#ffffff"] ;
53 -> 55 ;
56 [label=<idade &le; 47.132<br/>gini = 0.5<br/>samples = 2<br/>value = [1, 1]<br/>class = Aprovado>, fillcolor="#ffffff"] ;
10 -> 56 ;
57 [label=<gini = 0.0<br/>samples = 1<br/>value = [1, 0]<br/>class = Aprovado>, fillcolor="#e58139"] ;
56 -> 57 ;
58 [label=<gini = 0.0<br/>samples = 1<br/>value = [0, 1]<br/>class = Reprovado>, fillcolor="#399de5"] ;
56 -> 58 ;
59 [label=<tempo_emprego &le; 2.682<br/>gini = 0.03<br/>samples = 198<br/>value = [195, 3]<br/>class = Aprovado>, fillcolor="#e5833c"] ;
9 -> 59 ;
60 [label=<gini = 0.0<br/>samples = 126<br/>value = [126, 0]<br/>class = Aprovado>, fillcolor="#e58139"] ;
59 -> 60 ;
61 [label=<tempo_emprego &le; 2.688<br/>gini = 0.08<br/>samples = 72<br/>value = [69, 3]<br/>class = Aprovado>, fillcolor="#e68642"] ;
59 -> 61 ;
62 [label=<idade &le; 44.01<br/>gini = 0.5<br/>samples = 2<br/>value = [1, 1]<br/>class = Aprovado>, fillcolor="#ffffff"] ;
61 -> 62 ;
63 [label=<gini = 0.0<br/>samples = 1<br/>value = [0, 1]<br/>class = Reprovado>, fillcolor="#399de5"] ;
62 -> 63 ;
64 [label=<gini = 0.0<br/>samples = 1<br/>value = [1, 0]<br/>class = Aprovado>, fillcolor="#e58139"] ;
62 -> 64 ;
65 [label=<qt_pessoas_residencia &le; 2.5<br/>gini = 0.056<br/>samples = 70<br/>value = [68, 2]<br/>class = Aprovado>, fillcolor="#e6853f"] ;
61 -> 65 ;
66 [label=<gini = 0.0<br/>samples = 44<br/>value = [44, 0]<br/>class = Aprovado>, fillcolor="#e58139"] ;
65 -> 66 ;
67 [label=<tempo_emprego &le; 3.61<br/>gini = 0.142<br/>samples = 26<br/>value = [24, 2]<br/>class = Aprovado>, fillcolor="#e78c49"] ;
65 -> 67 ;
68 [label=<idade &le; 30.555<br/>gini = 0.083<br/>samples = 23<br/>value = [22, 1]<br/>class = Aprovado>, fillcolor="#e68742"] ;
67 -> 68 ;
69 [label=<idade &le; 29.701<br/>gini = 0.32<br/>samples = 5<br/>value = [4, 1]<br/>class = Aprovado>, fillcolor="#eca06a"] ;
68 -> 69 ;
70 [label=<gini = 0.0<br/>samples = 4<br/>value = [4, 0]<br/>class = Aprovado>, fillcolor="#e58139"] ;
69 -> 70 ;
71 [label=<gini = 0.0<br/>samples = 1<br/>value = [0, 1]<br/>class = Reprovado>, fillcolor="#399de5"] ;
69 -> 71 ;
72 [label=<gini = 0.0<br/>samples = 18<br/>value = [18, 0]<br/>class = Aprovado>, fillcolor="#e58139"] ;
68 -> 72 ;
73 [label=<idade &le; 35.404<br/>gini = 0.444<br/>samples = 3<br/>value = [2, 1]<br/>class = Aprovado>, fillcolor="#f2c09c"] ;
67 -> 73 ;
74 [label=<gini = 0.0<br/>samples = 2<br/>value = [2, 0]<br/>class = Aprovado>, fillcolor="#e58139"] ;
73 -> 74 ;
75 [label=<gini = 0.0<br/>samples = 1<br/>value = [0, 1]<br/>class = Reprovado>, fillcolor="#399de5"] ;
73 -> 75 ;
76 [label=<tipo_renda_Pensioner &le; 0.5<br/>gini = 0.133<br/>samples = 154<br/>value = [143, 11]<br/>class = Aprovado>, fillcolor="#e78b48"] ;
8 -> 76 ;
77 [label=<tempo_emprego &le; 2.656<br/>gini = 0.122<br/>samples = 153<br/>value = [143, 10]<br/>class = Aprovado>, fillcolor="#e78a47"] ;
76 -> 77 ;
78 [label=<tempo_emprego &le; 2.53<br/>gini = 0.178<br/>samples = 101<br/>value = [91, 10]<br/>class = Aprovado>, fillcolor="#e88f4f"] ;
77 -> 78 ;
79 [label=<qt_pessoas_residencia &le; 2.5<br/>gini = 0.15<br/>samples = 98<br/>value = [90.0, 8.0]<br/>class = Aprovado>, fillcolor="#e78c4b"] ;
78 -> 79 ;
80 [label=<tipo_residencia_With parents &le; 0.5<br/>gini = 0.084<br/>samples = 68<br/>value = [65, 3]<br/>class = Aprovado>, fillcolor="#e68742"] ;
79 -> 80 ;
81 [label=<tempo_emprego &le; 1.504<br/>gini = 0.065<br/>samples = 59<br/>value = [57, 2]<br/>class = Aprovado>, fillcolor="#e68540"] ;
80 -> 81 ;
82 [label=<gini = 0.0<br/>samples = 34<br/>value = [34, 0]<br/>class = Aprovado>, fillcolor="#e58139"] ;
81 -> 82 ;
83 [label=<tempo_emprego &le; 1.655<br/>gini = 0.147<br/>samples = 25<br/>value = [23, 2]<br/>class = Aprovado>, fillcolor="#e78c4a"] ;
81 -> 83 ;
84 [label=<gini = 0.5<br/>samples = 2<br/>value = [1, 1]<br/>class = Aprovado>, fillcolor="#ffffff"] ;
83 -> 84 ;
85 [label=<tempo_emprego &le; 1.953<br/>gini = 0.083<br/>samples = 23<br/>value = [22, 1]<br/>class = Aprovado>, fillcolor="#e68742"] ;
83 -> 85 ;
86 [label=<tempo_emprego &le; 1.941<br/>gini = 0.245<br/>samples = 7<br/>value = [6, 1]<br/>class = Aprovado>, fillcolor="#e9965a"] ;
85 -> 86 ;
87 [label=<gini = 0.0<br/>samples = 5<br/>value = [5, 0]<br/>class = Aprovado>, fillcolor="#e58139"] ;
86 -> 87 ;
88 [label=<gini = 0.5<br/>samples = 2<br/>value = [1, 1]<br/>class = Aprovado>, fillcolor="#ffffff"] ;
86 -> 88 ;
89 [label=<gini = 0.0<br/>samples = 16<br/>value = [16, 0]<br/>class = Aprovado>, fillcolor="#e58139"] ;
85 -> 89 ;
90 [label=<tempo_emprego &le; 0.699<br/>gini = 0.198<br/>samples = 9<br/>value = [8, 1]<br/>class = Aprovado>, fillcolor="#e89152"] ;
80 -> 90 ;
91 [label=<tempo_emprego &le; 0.448<br/>gini = 0.444<br/>samples = 3<br/>value = [2, 1]<br/>class = Aprovado>, fillcolor="#f2c09c"] ;
90 -> 91 ;
92 [label=<gini = 0.0<br/>samples = 2<br/>value = [2, 0]<br/>class = Aprovado>, fillcolor="#e58139"] ;
91 -> 92 ;
93 [label=<gini = 0.0<br/>samples = 1<br/>value = [0, 1]<br/>class = Reprovado>, fillcolor="#399de5"] ;
91 -> 93 ;
94 [label=<gini = 0.0<br/>samples = 6<br/>value = [6, 0]<br/>class = Aprovado>, fillcolor="#e58139"] ;
90 -> 94 ;
95 [label=<idade &le; 40.526<br/>gini = 0.278<br/>samples = 30<br/>value = [25, 5]<br/>class = Aprovado>, fillcolor="#ea9a61"] ;
79 -> 95 ;
96 [label=<possui_fone &le; 0.5<br/>gini = 0.198<br/>samples = 27<br/>value = [24, 3]<br/>class = Aprovado>, fillcolor="#e89152"] ;
95 -> 96 ;
97 [label=<gini = 0.0<br/>samples = 16<br/>value = [16, 0]<br/>class = Aprovado>, fillcolor="#e58139"] ;
96 -> 97 ;
98 [label=<idade &le; 30.696<br/>gini = 0.397<br/>samples = 11<br/>value = [8, 3]<br/>class = Aprovado>, fillcolor="#efb083"] ;
96 -> 98 ;
99 [label=<posse_de_veiculo &le; 0.5<br/>gini = 0.5<br/>samples = 6<br/>value = [3, 3]<br/>class = Aprovado>, fillcolor="#ffffff"] ;
98 -> 99 ;
100 [label=<tempo_emprego &le; 1.421<br/>gini = 0.375<br/>samples = 4<br/>value = [3, 1]<br/>class = Aprovado>, fillcolor="#eeab7b"] ;
99 -> 100 ;
101 [label=<gini = 0.5<br/>samples = 2<br/>value = [1, 1]<br/>class = Aprovado>, fillcolor="#ffffff"] ;
100 -> 101 ;
102 [label=<gini = 0.0<br/>samples = 2<br/>value = [2, 0]<br/>class = Aprovado>, fillcolor="#e58139"] ;
100 -> 102 ;
103 [label=<gini = 0.0<br/>samples = 2<br/>value = [0, 2]<br/>class = Reprovado>, fillcolor="#399de5"] ;
99 -> 103 ;
104 [label=<gini = 0.0<br/>samples = 5<br/>value = [5, 0]<br/>class = Aprovado>, fillcolor="#e58139"] ;
98 -> 104 ;
105 [label=<qt_pessoas_residencia &le; 3.5<br/>gini = 0.444<br/>samples = 3<br/>value = [1, 2]<br/>class = Reprovado>, fillcolor="#9ccef2"] ;
95 -> 105 ;
106 [label=<gini = 0.0<br/>samples = 2<br/>value = [0, 2]<br/>class = Reprovado>, fillcolor="#399de5"] ;
105 -> 106 ;
107 [label=<gini = 0.0<br/>samples = 1<br/>value = [1, 0]<br/>class = Aprovado>, fillcolor="#e58139"] ;
105 -> 107 ;
108 [label=<tipo_renda_Working &le; 0.5<br/>gini = 0.444<br/>samples = 3<br/>value = [1, 2]<br/>class = Reprovado>, fillcolor="#9ccef2"] ;
78 -> 108 ;
109 [label=<gini = 0.0<br/>samples = 1<br/>value = [1, 0]<br/>class = Aprovado>, fillcolor="#e58139"] ;
108 -> 109 ;
110 [label=<gini = 0.0<br/>samples = 2<br/>value = [0, 2]<br/>class = Reprovado>, fillcolor="#399de5"] ;
108 -> 110 ;
111 [label=<gini = 0.0<br/>samples = 52<br/>value = [52, 0]<br/>class = Aprovado>, fillcolor="#e58139"] ;
77 -> 111 ;
112 [label=<gini = 0.0<br/>samples = 1<br/>value = [0, 1]<br/>class = Reprovado>, fillcolor="#399de5"] ;
76 -> 112 ;
113 [label=<tempo_emprego &le; 3.826<br/>gini = 0.159<br/>samples = 103<br/>value = [94, 9]<br/>class = Aprovado>, fillcolor="#e78d4c"] ;
7 -> 113 ;
114 [label=<gini = 0.0<br/>samples = 1<br/>value = [0, 1]<br/>class = Reprovado>, fillcolor="#399de5"] ;
113 -> 114 ;
115 [label=<idade &le; 51.785<br/>gini = 0.145<br/>samples = 102<br/>value = [94, 8]<br/>class = Aprovado>, fillcolor="#e78c4a"] ;
113 -> 115 ;
116 [label=<tempo_emprego &le; 4.0<br/>gini = 0.102<br/>samples = 93<br/>value = [88, 5]<br/>class = Aprovado>, fillcolor="#e68844"] ;
115 -> 116 ;
117 [label=<tempo_emprego &le; 3.964<br/>gini = 0.255<br/>samples = 20<br/>value = [17, 3]<br/>class = Aprovado>, fillcolor="#ea975c"] ;
116 -> 117 ;
118 [label=<idade &le; 39.688<br/>gini = 0.111<br/>samples = 17<br/>value = [16, 1]<br/>class = Aprovado>, fillcolor="#e78945"] ;
117 -> 118 ;
119 [label=<gini = 0.0<br/>samples = 13<br/>value = [13, 0]<br/>class = Aprovado>, fillcolor="#e58139"] ;
118 -> 119 ;
120 [label=<tempo_emprego &le; 3.908<br/>gini = 0.375<br/>samples = 4<br/>value = [3, 1]<br/>class = Aprovado>, fillcolor="#eeab7b"] ;
118 -> 120 ;
121 [label=<gini = 0.0<br/>samples = 3<br/>value = [3, 0]<br/>class = Aprovado>, fillcolor="#e58139"] ;
120 -> 121 ;
122 [label=<gini = 0.0<br/>samples = 1<br/>value = [0, 1]<br/>class = Reprovado>, fillcolor="#399de5"] ;
120 -> 122 ;
123 [label=<qt_pessoas_residencia &le; 2.0<br/>gini = 0.444<br/>samples = 3<br/>value = [1, 2]<br/>class = Reprovado>, fillcolor="#9ccef2"] ;
117 -> 123 ;
124 [label=<gini = 0.0<br/>samples = 1<br/>value = [0, 1]<br/>class = Reprovado>, fillcolor="#399de5"] ;
123 -> 124 ;
125 [label=<gini = 0.5<br/>samples = 2<br/>value = [1, 1]<br/>class = Aprovado>, fillcolor="#ffffff"] ;
123 -> 125 ;
126 [label=<possui_fone_comercial &le; 0.5<br/>gini = 0.053<br/>samples = 73<br/>value = [71, 2]<br/>class = Aprovado>, fillcolor="#e6853f"] ;
116 -> 126 ;
127 [label=<gini = 0.0<br/>samples = 45<br/>value = [45, 0]<br/>class = Aprovado>, fillcolor="#e58139"] ;
126 -> 127 ;
128 [label=<tempo_emprego &le; 4.433<br/>gini = 0.133<br/>samples = 28<br/>value = [26, 2]<br/>class = Aprovado>, fillcolor="#e78b48"] ;
126 -> 128 ;
129 [label=<gini = 0.0<br/>samples = 14<br/>value = [14, 0]<br/>class = Aprovado>, fillcolor="#e58139"] ;
128 -> 129 ;
130 [label=<tempo_emprego &le; 4.445<br/>gini = 0.245<br/>samples = 14<br/>value = [12, 2]<br/>class = Aprovado>, fillcolor="#e9965a"] ;
128 -> 130 ;
131 [label=<qtd_filhos &le; 0.5<br/>gini = 0.5<br/>samples = 2<br/>value = [1, 1]<br/>class = Aprovado>, fillcolor="#ffffff"] ;
130 -> 131 ;
132 [label=<gini = 0.0<br/>samples = 1<br/>value = [1, 0]<br/>class = Aprovado>, fillcolor="#e58139"] ;
131 -> 132 ;
133 [label=<gini = 0.0<br/>samples = 1<br/>value = [0, 1]<br/>class = Reprovado>, fillcolor="#399de5"] ;
131 -> 133 ;
134 [label=<educacao_Higher education &le; 0.5<br/>gini = 0.153<br/>samples = 12<br/>value = [11, 1]<br/>class = Aprovado>, fillcolor="#e78c4b"] ;
130 -> 134 ;
135 [label=<gini = 0.0<br/>samples = 8<br/>value = [8, 0]<br/>class = Aprovado>, fillcolor="#e58139"] ;
134 -> 135 ;
136 [label=<idade &le; 37.922<br/>gini = 0.375<br/>samples = 4<br/>value = [3, 1]<br/>class = Aprovado>, fillcolor="#eeab7b"] ;
134 -> 136 ;
137 [label=<gini = 0.0<br/>samples = 2<br/>value = [2, 0]<br/>class = Aprovado>, fillcolor="#e58139"] ;
136 -> 137 ;
138 [label=<idade &le; 42.248<br/>gini = 0.5<br/>samples = 2<br/>value = [1, 1]<br/>class = Aprovado>, fillcolor="#ffffff"] ;
136 -> 138 ;
139 [label=<gini = 0.0<br/>samples = 1<br/>value = [0, 1]<br/>class = Reprovado>, fillcolor="#399de5"] ;
138 -> 139 ;
140 [label=<gini = 0.0<br/>samples = 1<br/>value = [1, 0]<br/>class = Aprovado>, fillcolor="#e58139"] ;
138 -> 140 ;
141 [label=<tempo_emprego &le; 4.366<br/>gini = 0.444<br/>samples = 9<br/>value = [6, 3]<br/>class = Aprovado>, fillcolor="#f2c09c"] ;
115 -> 141 ;
142 [label=<educacao_Secondary / secondary special &le; 0.5<br/>gini = 0.48<br/>samples = 5<br/>value = [2, 3]<br/>class = Reprovado>, fillcolor="#bddef6"] ;
141 -> 142 ;
143 [label=<tempo_emprego &le; 4.199<br/>gini = 0.444<br/>samples = 3<br/>value = [2, 1]<br/>class = Aprovado>, fillcolor="#f2c09c"] ;
142 -> 143 ;
144 [label=<gini = 0.0<br/>samples = 1<br/>value = [1, 0]<br/>class = Aprovado>, fillcolor="#e58139"] ;
143 -> 144 ;
145 [label=<gini = 0.5<br/>samples = 2<br/>value = [1, 1]<br/>class = Aprovado>, fillcolor="#ffffff"] ;
143 -> 145 ;
146 [label=<gini = 0.0<br/>samples = 2<br/>value = [0, 2]<br/>class = Reprovado>, fillcolor="#399de5"] ;
142 -> 146 ;
147 [label=<gini = 0.0<br/>samples = 4<br/>value = [4, 0]<br/>class = Aprovado>, fillcolor="#e58139"] ;
141 -> 147 ;
148 [label=<posse_de_veiculo &le; 0.5<br/>gini = 0.346<br/>samples = 9<br/>value = [7, 2]<br/>class = Aprovado>, fillcolor="#eca572"] ;
6 -> 148 ;
149 [label=<gini = 0.0<br/>samples = 4<br/>value = [4, 0]<br/>class = Aprovado>, fillcolor="#e58139"] ;
148 -> 149 ;
150 [label=<qt_pessoas_residencia &le; 2.5<br/>gini = 0.48<br/>samples = 5<br/>value = [3, 2]<br/>class = Aprovado>, fillcolor="#f6d5bd"] ;
148 -> 150 ;
151 [label=<qt_pessoas_residencia &le; 1.5<br/>gini = 0.5<br/>samples = 4<br/>value = [2, 2]<br/>class = Aprovado>, fillcolor="#ffffff"] ;
150 -> 151 ;
152 [label=<gini = 0.5<br/>samples = 2<br/>value = [1, 1]<br/>class = Aprovado>, fillcolor="#ffffff"] ;
151 -> 152 ;
153 [label=<gini = 0.5<br/>samples = 2<br/>value = [1, 1]<br/>class = Aprovado>, fillcolor="#ffffff"] ;
151 -> 153 ;
154 [label=<gini = 0.0<br/>samples = 1<br/>value = [1, 0]<br/>class = Aprovado>, fillcolor="#e58139"] ;
150 -> 154 ;
155 [label=<idade &le; 58.129<br/>gini = 0.231<br/>samples = 45<br/>value = [39, 6]<br/>class = Aprovado>, fillcolor="#e99457"] ;
5 -> 155 ;
156 [label=<estado_civil_Single / not married &le; 0.5<br/>gini = 0.142<br/>samples = 39<br/>value = [36, 3]<br/>class = Aprovado>, fillcolor="#e78c49"] ;
155 -> 156 ;
157 [label=<gini = 0.0<br/>samples = 27<br/>value = [27, 0]<br/>class = Aprovado>, fillcolor="#e58139"] ;
156 -> 157 ;
158 [label=<tipo_renda_Pensioner &le; 0.5<br/>gini = 0.375<br/>samples = 12<br/>value = [9, 3]<br/>class = Aprovado>, fillcolor="#eeab7b"] ;
156 -> 158 ;
159 [label=<educacao_Higher education &le; 0.5<br/>gini = 0.298<br/>samples = 11<br/>value = [9, 2]<br/>class = Aprovado>, fillcolor="#eb9d65"] ;
158 -> 159 ;
160 [label=<qtd_filhos &le; 0.5<br/>gini = 0.18<br/>samples = 10<br/>value = [9, 1]<br/>class = Aprovado>, fillcolor="#e88f4f"] ;
159 -> 160 ;
161 [label=<gini = 0.0<br/>samples = 8<br/>value = [8, 0]<br/>class = Aprovado>, fillcolor="#e58139"] ;
160 -> 161 ;
162 [label=<idade &le; 30.047<br/>gini = 0.5<br/>samples = 2<br/>value = [1, 1]<br/>class = Aprovado>, fillcolor="#ffffff"] ;
160 -> 162 ;
163 [label=<gini = 0.0<br/>samples = 1<br/>value = [0, 1]<br/>class = Reprovado>, fillcolor="#399de5"] ;
162 -> 163 ;
164 [label=<gini = 0.0<br/>samples = 1<br/>value = [1, 0]<br/>class = Aprovado>, fillcolor="#e58139"] ;
162 -> 164 ;
165 [label=<gini = 0.0<br/>samples = 1<br/>value = [0, 1]<br/>class = Reprovado>, fillcolor="#399de5"] ;
159 -> 165 ;
166 [label=<gini = 0.0<br/>samples = 1<br/>value = [0, 1]<br/>class = Reprovado>, fillcolor="#399de5"] ;
158 -> 166 ;
167 [label=<qt_pessoas_residencia &le; 1.5<br/>gini = 0.5<br/>samples = 6<br/>value = [3, 3]<br/>class = Aprovado>, fillcolor="#ffffff"] ;
155 -> 167 ;
168 [label=<gini = 0.0<br/>samples = 3<br/>value = [3, 0]<br/>class = Aprovado>, fillcolor="#e58139"] ;
167 -> 168 ;
169 [label=<gini = 0.0<br/>samples = 3<br/>value = [0, 3]<br/>class = Reprovado>, fillcolor="#399de5"] ;
167 -> 169 ;
170 [label=<idade &le; 40.488<br/>gini = 0.272<br/>samples = 37<br/>value = [31, 6]<br/>class = Aprovado>, fillcolor="#ea995f"] ;
4 -> 170 ;
171 [label=<gini = 0.0<br/>samples = 20<br/>value = [20, 0]<br/>class = Aprovado>, fillcolor="#e58139"] ;
170 -> 171 ;
172 [label=<tempo_emprego &le; 4.777<br/>gini = 0.457<br/>samples = 17<br/>value = [11, 6]<br/>class = Aprovado>, fillcolor="#f3c6a5"] ;
170 -> 172 ;
173 [label=<tipo_residencia_Municipal apartment &le; 0.5<br/>gini = 0.49<br/>samples = 7<br/>value = [3, 4]<br/>class = Reprovado>, fillcolor="#cee6f8"] ;
172 -> 173 ;
174 [label=<possui_fone_comercial &le; 0.5<br/>gini = 0.444<br/>samples = 6<br/>value = [2, 4]<br/>class = Reprovado>, fillcolor="#9ccef2"] ;
173 -> 174 ;
175 [label=<gini = 0.0<br/>samples = 3<br/>value = [0, 3]<br/>class = Reprovado>, fillcolor="#399de5"] ;
174 -> 175 ;
176 [label=<tipo_renda_Working &le; 0.5<br/>gini = 0.444<br/>samples = 3<br/>value = [2, 1]<br/>class = Aprovado>, fillcolor="#f2c09c"] ;
174 -> 176 ;
177 [label=<gini = 0.5<br/>samples = 2<br/>value = [1, 1]<br/>class = Aprovado>, fillcolor="#ffffff"] ;
176 -> 177 ;
178 [label=<gini = 0.0<br/>samples = 1<br/>value = [1, 0]<br/>class = Aprovado>, fillcolor="#e58139"] ;
176 -> 178 ;
179 [label=<gini = 0.0<br/>samples = 1<br/>value = [1, 0]<br/>class = Aprovado>, fillcolor="#e58139"] ;
173 -> 179 ;
180 [label=<possui_email &le; 0.5<br/>gini = 0.32<br/>samples = 10<br/>value = [8, 2]<br/>class = Aprovado>, fillcolor="#eca06a"] ;
172 -> 180 ;
181 [label=<estado_civil_Separated &le; 0.5<br/>gini = 0.219<br/>samples = 8<br/>value = [7, 1]<br/>class = Aprovado>, fillcolor="#e99355"] ;
180 -> 181 ;
182 [label=<gini = 0.0<br/>samples = 6<br/>value = [6, 0]<br/>class = Aprovado>, fillcolor="#e58139"] ;
181 -> 182 ;
183 [label=<gini = 0.5<br/>samples = 2<br/>value = [1, 1]<br/>class = Aprovado>, fillcolor="#ffffff"] ;
181 -> 183 ;
184 [label=<gini = 0.5<br/>samples = 2<br/>value = [1, 1]<br/>class = Aprovado>, fillcolor="#ffffff"] ;
180 -> 184 ;
185 [label=<sexo &le; 0.5<br/>gini = 0.292<br/>samples = 45<br/>value = [37, 8]<br/>class = Aprovado>, fillcolor="#eb9c64"] ;
3 -> 185 ;
186 [label=<idade &le; 66.863<br/>gini = 0.245<br/>samples = 42<br/>value = [36, 6]<br/>class = Aprovado>, fillcolor="#e9965a"] ;
185 -> 186 ;
187 [label=<tipo_residencia_House / apartment &le; 0.5<br/>gini = 0.214<br/>samples = 41<br/>value = [36, 5]<br/>class = Aprovado>, fillcolor="#e99254"] ;
186 -> 187 ;
188 [label=<possui_fone &le; 0.5<br/>gini = 0.469<br/>samples = 8<br/>value = [5, 3]<br/>class = Aprovado>, fillcolor="#f5cdb0"] ;
187 -> 188 ;
189 [label=<tipo_renda_Working &le; 0.5<br/>gini = 0.5<br/>samples = 6<br/>value = [3, 3]<br/>class = Aprovado>, fillcolor="#ffffff"] ;
188 -> 189 ;
190 [label=<gini = 0.5<br/>samples = 2<br/>value = [1, 1]<br/>class = Aprovado>, fillcolor="#ffffff"] ;
189 -> 190 ;
191 [label=<tipo_residencia_Rented apartment &le; 0.5<br/>gini = 0.5<br/>samples = 4<br/>value = [2, 2]<br/>class = Aprovado>, fillcolor="#ffffff"] ;
189 -> 191 ;
192 [label=<gini = 0.5<br/>samples = 2<br/>value = [1, 1]<br/>class = Aprovado>, fillcolor="#ffffff"] ;
191 -> 192 ;
193 [label=<gini = 0.5<br/>samples = 2<br/>value = [1, 1]<br/>class = Aprovado>, fillcolor="#ffffff"] ;
191 -> 193 ;
194 [label=<gini = 0.0<br/>samples = 2<br/>value = [2, 0]<br/>class = Aprovado>, fillcolor="#e58139"] ;
188 -> 194 ;
195 [label=<tempo_emprego &le; 1.333<br/>gini = 0.114<br/>samples = 33<br/>value = [31, 2]<br/>class = Aprovado>, fillcolor="#e78946"] ;
187 -> 195 ;
196 [label=<idade &le; 60.607<br/>gini = 0.064<br/>samples = 30<br/>value = [29, 1]<br/>class = Aprovado>, fillcolor="#e68540"] ;
195 -> 196 ;
197 [label=<gini = 0.0<br/>samples = 16<br/>value = [16, 0]<br/>class = Aprovado>, fillcolor="#e58139"] ;
196 -> 197 ;
198 [label=<idade &le; 61.571<br/>gini = 0.133<br/>samples = 14<br/>value = [13, 1]<br/>class = Aprovado>, fillcolor="#e78b48"] ;
196 -> 198 ;
199 [label=<gini = 0.5<br/>samples = 2<br/>value = [1, 1]<br/>class = Aprovado>, fillcolor="#ffffff"] ;
198 -> 199 ;
200 [label=<gini = 0.0<br/>samples = 12<br/>value = [12, 0]<br/>class = Aprovado>, fillcolor="#e58139"] ;
198 -> 200 ;
201 [label=<possui_fone_comercial &le; 0.5<br/>gini = 0.444<br/>samples = 3<br/>value = [2, 1]<br/>class = Aprovado>, fillcolor="#f2c09c"] ;
195 -> 201 ;
202 [label=<gini = 0.0<br/>samples = 2<br/>value = [2, 0]<br/>class = Aprovado>, fillcolor="#e58139"] ;
201 -> 202 ;
203 [label=<gini = 0.0<br/>samples = 1<br/>value = [0, 1]<br/>class = Reprovado>, fillcolor="#399de5"] ;
201 -> 203 ;
204 [label=<gini = 0.0<br/>samples = 1<br/>value = [0, 1]<br/>class = Reprovado>, fillcolor="#399de5"] ;
186 -> 204 ;
205 [label=<tipo_residencia_Municipal apartment &le; 0.5<br/>gini = 0.444<br/>samples = 3<br/>value = [1, 2]<br/>class = Reprovado>, fillcolor="#9ccef2"] ;
185 -> 205 ;
206 [label=<gini = 0.0<br/>samples = 1<br/>value = [0, 1]<br/>class = Reprovado>, fillcolor="#399de5"] ;
205 -> 206 ;
207 [label=<gini = 0.5<br/>samples = 2<br/>value = [1, 1]<br/>class = Aprovado>, fillcolor="#ffffff"] ;
205 -> 207 ;
208 [label=<qt_pessoas_residencia &le; 2.5<br/>gini = 0.085<br/>samples = 1777<br/>value = [1698, 79]<br/>class = Aprovado>, fillcolor="#e68742"] ;
2 -> 208 ;
209 [label=<idade &le; 35.478<br/>gini = 0.096<br/>samples = 1349<br/>value = [1281, 68]<br/>class = Aprovado>, fillcolor="#e68844"] ;
208 -> 209 ;
210 [label=<tempo_emprego &le; 0.603<br/>gini = 0.149<br/>samples = 235<br/>value = [216, 19]<br/>class = Aprovado>, fillcolor="#e78c4a"] ;
209 -> 210 ;
211 [label=<idade &le; 34.447<br/>gini = 0.397<br/>samples = 22<br/>value = [16, 6]<br/>class = Aprovado>, fillcolor="#efb083"] ;
210 -> 211 ;
212 [label=<tempo_emprego &le; 0.585<br/>gini = 0.32<br/>samples = 20<br/>value = [16, 4]<br/>class = Aprovado>, fillcolor="#eca06a"] ;
211 -> 212 ;
213 [label=<idade &le; 27.408<br/>gini = 0.266<br/>samples = 19<br/>value = [16, 3]<br/>class = Aprovado>, fillcolor="#ea995e"] ;
212 -> 213 ;
214 [label=<gini = 0.0<br/>samples = 7<br/>value = [7, 0]<br/>class = Aprovado>, fillcolor="#e58139"] ;
213 -> 214 ;
215 [label=<idade &le; 28.026<br/>gini = 0.375<br/>samples = 12<br/>value = [9, 3]<br/>class = Aprovado>, fillcolor="#eeab7b"] ;
213 -> 215 ;
216 [label=<educacao_Incomplete higher &le; 0.5<br/>gini = 0.444<br/>samples = 3<br/>value = [1, 2]<br/>class = Reprovado>, fillcolor="#9ccef2"] ;
215 -> 216 ;
217 [label=<gini = 0.5<br/>samples = 2<br/>value = [1, 1]<br/>class = Aprovado>, fillcolor="#ffffff"] ;
216 -> 217 ;
218 [label=<gini = 0.0<br/>samples = 1<br/>value = [0, 1]<br/>class = Reprovado>, fillcolor="#399de5"] ;
216 -> 218 ;
219 [label=<idade &le; 33.511<br/>gini = 0.198<br/>samples = 9<br/>value = [8, 1]<br/>class = Aprovado>, fillcolor="#e89152"] ;
215 -> 219 ;
220 [label=<gini = 0.0<br/>samples = 7<br/>value = [7, 0]<br/>class = Aprovado>, fillcolor="#e58139"] ;
219 -> 220 ;
221 [label=<gini = 0.5<br/>samples = 2<br/>value = [1, 1]<br/>class = Aprovado>, fillcolor="#ffffff"] ;
219 -> 221 ;
222 [label=<gini = 0.0<br/>samples = 1<br/>value = [0, 1]<br/>class = Reprovado>, fillcolor="#399de5"] ;
212 -> 222 ;
223 [label=<gini = 0.0<br/>samples = 2<br/>value = [0, 2]<br/>class = Reprovado>, fillcolor="#399de5"] ;
211 -> 223 ;
224 [label=<idade &le; 28.445<br/>gini = 0.115<br/>samples = 213<br/>value = [200, 13]<br/>class = Aprovado>, fillcolor="#e78946"] ;
210 -> 224 ;
225 [label=<tempo_emprego &le; 3.781<br/>gini = 0.027<br/>samples = 73<br/>value = [72, 1]<br/>class = Aprovado>, fillcolor="#e5833c"] ;
224 -> 225 ;
226 [label=<gini = 0.0<br/>samples = 53<br/>value = [53, 0]<br/>class = Aprovado>, fillcolor="#e58139"] ;
225 -> 226 ;
227 [label=<tempo_emprego &le; 3.823<br/>gini = 0.095<br/>samples = 20<br/>value = [19, 1]<br/>class = Aprovado>, fillcolor="#e68843"] ;
225 -> 227 ;
228 [label=<gini = 0.0<br/>samples = 1<br/>value = [0, 1]<br/>class = Reprovado>, fillcolor="#399de5"] ;
227 -> 228 ;
229 [label=<gini = 0.0<br/>samples = 19<br/>value = [19, 0]<br/>class = Aprovado>, fillcolor="#e58139"] ;
227 -> 229 ;
230 [label=<idade &le; 28.593<br/>gini = 0.157<br/>samples = 140<br/>value = [128, 12]<br/>class = Aprovado>, fillcolor="#e78d4c"] ;
224 -> 230 ;
231 [label=<educacao_Higher education &le; 0.5<br/>gini = 0.444<br/>samples = 6<br/>value = [2, 4]<br/>class = Reprovado>, fillcolor="#9ccef2"] ;
230 -> 231 ;
232 [label=<gini = 0.0<br/>samples = 2<br/>value = [2, 0]<br/>class = Aprovado>, fillcolor="#e58139"] ;
231 -> 232 ;
233 [label=<gini = 0.0<br/>samples = 4<br/>value = [0, 4]<br/>class = Reprovado>, fillcolor="#399de5"] ;
231 -> 233 ;
234 [label=<tempo_emprego &le; 4.568<br/>gini = 0.112<br/>samples = 134<br/>value = [126, 8]<br/>class = Aprovado>, fillcolor="#e78946"] ;
230 -> 234 ;
235 [label=<possui_fone &le; 0.5<br/>gini = 0.092<br/>samples = 124<br/>value = [118, 6]<br/>class = Aprovado>, fillcolor="#e68743"] ;
234 -> 235 ;
236 [label=<idade &le; 28.862<br/>gini = 0.044<br/>samples = 88<br/>value = [86, 2]<br/>class = Aprovado>, fillcolor="#e6843e"] ;
235 -> 236 ;
237 [label=<idade &le; 28.707<br/>gini = 0.375<br/>samples = 4<br/>value = [3, 1]<br/>class = Aprovado>, fillcolor="#eeab7b"] ;
236 -> 237 ;
238 [label=<gini = 0.0<br/>samples = 2<br/>value = [2, 0]<br/>class = Aprovado>, fillcolor="#e58139"] ;
237 -> 238 ;
239 [label=<gini = 0.5<br/>samples = 2<br/>value = [1, 1]<br/>class = Aprovado>, fillcolor="#ffffff"] ;
237 -> 239 ;
240 [label=<tempo_emprego &le; 3.781<br/>gini = 0.024<br/>samples = 84<br/>value = [83, 1]<br/>class = Aprovado>, fillcolor="#e5833b"] ;
236 -> 240 ;
241 [label=<gini = 0.0<br/>samples = 65<br/>value = [65, 0]<br/>class = Aprovado>, fillcolor="#e58139"] ;
240 -> 241 ;
242 [label=<tempo_emprego &le; 3.821<br/>gini = 0.1<br/>samples = 19<br/>value = [18, 1]<br/>class = Aprovado>, fillcolor="#e68844"] ;
240 -> 242 ;
243 [label=<gini = 0.5<br/>samples = 2<br/>value = [1, 1]<br/>class = Aprovado>, fillcolor="#ffffff"] ;
242 -> 243 ;
244 [label=<gini = 0.0<br/>samples = 17<br/>value = [17, 0]<br/>class = Aprovado>, fillcolor="#e58139"] ;
242 -> 244 ;
245 [label=<qtd_filhos &le; 0.5<br/>gini = 0.198<br/>samples = 36<br/>value = [32, 4]<br/>class = Aprovado>, fillcolor="#e89152"] ;
235 -> 245 ;
246 [label=<tipo_renda_Working &le; 0.5<br/>gini = 0.111<br/>samples = 34<br/>value = [32, 2]<br/>class = Aprovado>, fillcolor="#e78945"] ;
245 -> 246 ;
247 [label=<tempo_emprego &le; 0.889<br/>gini = 0.26<br/>samples = 13<br/>value = [11, 2]<br/>class = Aprovado>, fillcolor="#ea985d"] ;
246 -> 247 ;
248 [label=<gini = 0.0<br/>samples = 1<br/>value = [0, 1]<br/>class = Reprovado>, fillcolor="#399de5"] ;
247 -> 248 ;
249 [label=<posse_de_veiculo &le; 0.5<br/>gini = 0.153<br/>samples = 12<br/>value = [11, 1]<br/>class = Aprovado>, fillcolor="#e78c4b"] ;
247 -> 249 ;
250 [label=<gini = 0.0<br/>samples = 8<br/>value = [8, 0]<br/>class = Aprovado>, fillcolor="#e58139"] ;
249 -> 250 ;
251 [label=<tempo_emprego &le; 3.311<br/>gini = 0.375<br/>samples = 4<br/>value = [3, 1]<br/>class = Aprovado>, fillcolor="#eeab7b"] ;
249 -> 251 ;
252 [label=<gini = 0.0<br/>samples = 2<br/>value = [2, 0]<br/>class = Aprovado>, fillcolor="#e58139"] ;
251 -> 252 ;
253 [label=<gini = 0.5<br/>samples = 2<br/>value = [1, 1]<br/>class = Aprovado>, fillcolor="#ffffff"] ;
251 -> 253 ;
254 [label=<gini = 0.0<br/>samples = 21<br/>value = [21, 0]<br/>class = Aprovado>, fillcolor="#e58139"] ;
246 -> 254 ;
255 [label=<gini = 0.0<br/>samples = 2<br/>value = [0, 2]<br/>class = Reprovado>, fillcolor="#399de5"] ;
245 -> 255 ;
256 [label=<idade &le; 33.308<br/>gini = 0.32<br/>samples = 10<br/>value = [8, 2]<br/>class = Aprovado>, fillcolor="#eca06a"] ;
234 -> 256 ;
257 [label=<sexo &le; 0.5<br/>gini = 0.444<br/>samples = 6<br/>value = [4, 2]<br/>class = Aprovado>, fillcolor="#f2c09c"] ;
256 -> 257 ;
258 [label=<gini = 0.0<br/>samples = 1<br/>value = [0, 1]<br/>class = Reprovado>, fillcolor="#399de5"] ;
257 -> 258 ;
259 [label=<tempo_emprego &le; 4.625<br/>gini = 0.32<br/>samples = 5<br/>value = [4, 1]<br/>class = Aprovado>, fillcolor="#eca06a"] ;
257 -> 259 ;
260 [label=<gini = 0.5<br/>samples = 2<br/>value = [1, 1]<br/>class = Aprovado>, fillcolor="#ffffff"] ;
259 -> 260 ;
261 [label=<gini = 0.0<br/>samples = 3<br/>value = [3, 0]<br/>class = Aprovado>, fillcolor="#e58139"] ;
259 -> 261 ;
262 [label=<gini = 0.0<br/>samples = 4<br/>value = [4, 0]<br/>class = Aprovado>, fillcolor="#e58139"] ;
256 -> 262 ;
263 [label=<educacao_Secondary / secondary special &le; 0.5<br/>gini = 0.084<br/>samples = 1114<br/>value = [1065, 49]<br/>class = Aprovado>, fillcolor="#e68742"] ;
209 -> 263 ;
264 [label=<estado_civil_Separated &le; 0.5<br/>gini = 0.13<br/>samples = 244<br/>value = [227, 17]<br/>class = Aprovado>, fillcolor="#e78a48"] ;
263 -> 264 ;
265 [label=<tempo_emprego &le; 1.512<br/>gini = 0.106<br/>samples = 214<br/>value = [202, 12]<br/>class = Aprovado>, fillcolor="#e78845"] ;
264 -> 265 ;
266 [label=<possui_fone &le; 0.5<br/>gini = 0.067<br/>samples = 143<br/>value = [138, 5]<br/>class = Aprovado>, fillcolor="#e68640"] ;
265 -> 266 ;
267 [label=<educacao_Lower secondary &le; 0.5<br/>gini = 0.021<br/>samples = 96<br/>value = [95, 1]<br/>class = Aprovado>, fillcolor="#e5823b"] ;
266 -> 267 ;
268 [label=<gini = 0.0<br/>samples = 80<br/>value = [80, 0]<br/>class = Aprovado>, fillcolor="#e58139"] ;
267 -> 268 ;
269 [label=<sexo &le; 0.5<br/>gini = 0.117<br/>samples = 16<br/>value = [15, 1]<br/>class = Aprovado>, fillcolor="#e78946"] ;
267 -> 269 ;
270 [label=<gini = 0.0<br/>samples = 12<br/>value = [12, 0]<br/>class = Aprovado>, fillcolor="#e58139"] ;
269 -> 270 ;
271 [label=<idade &le; 52.678<br/>gini = 0.375<br/>samples = 4<br/>value = [3, 1]<br/>class = Aprovado>, fillcolor="#eeab7b"] ;
269 -> 271 ;
272 [label=<gini = 0.0<br/>samples = 1<br/>value = [1, 0]<br/>class = Aprovado>, fillcolor="#e58139"] ;
271 -> 272 ;
273 [label=<idade &le; 64.648<br/>gini = 0.444<br/>samples = 3<br/>value = [2, 1]<br/>class = Aprovado>, fillcolor="#f2c09c"] ;
271 -> 273 ;
274 [label=<gini = 0.5<br/>samples = 2<br/>value = [1, 1]<br/>class = Aprovado>, fillcolor="#ffffff"] ;
273 -> 274 ;
275 [label=<gini = 0.0<br/>samples = 1<br/>value = [1, 0]<br/>class = Aprovado>, fillcolor="#e58139"] ;
273 -> 275 ;
276 [label=<posse_de_veiculo &le; 0.5<br/>gini = 0.156<br/>samples = 47<br/>value = [43, 4]<br/>class = Aprovado>, fillcolor="#e78d4b"] ;
266 -> 276 ;
277 [label=<gini = 0.0<br/>samples = 27<br/>value = [27, 0]<br/>class = Aprovado>, fillcolor="#e58139"] ;
276 -> 277 ;
278 [label=<estado_civil_Married &le; 0.5<br/>gini = 0.32<br/>samples = 20<br/>value = [16, 4]<br/>class = Aprovado>, fillcolor="#eca06a"] ;
276 -> 278 ;
279 [label=<gini = 0.0<br/>samples = 6<br/>value = [6, 0]<br/>class = Aprovado>, fillcolor="#e58139"] ;
278 -> 279 ;
280 [label=<idade &le; 65.125<br/>gini = 0.408<br/>samples = 14<br/>value = [10, 4]<br/>class = Aprovado>, fillcolor="#efb388"] ;
278 -> 280 ;
281 [label=<idade &le; 60.318<br/>gini = 0.355<br/>samples = 13<br/>value = [10, 3]<br/>class = Aprovado>, fillcolor="#eda774"] ;
280 -> 281 ;
282 [label=<tipo_renda_Working &le; 0.5<br/>gini = 0.469<br/>samples = 8<br/>value = [5, 3]<br/>class = Aprovado>, fillcolor="#f5cdb0"] ;
281 -> 282 ;
283 [label=<educacao_Higher education &le; 0.5<br/>gini = 0.5<br/>samples = 6<br/>value = [3, 3]<br/>class = Aprovado>, fillcolor="#ffffff"] ;
282 -> 283 ;
284 [label=<gini = 0.0<br/>samples = 1<br/>value = [1, 0]<br/>class = Aprovado>, fillcolor="#e58139"] ;
283 -> 284 ;
285 [label=<tipo_renda_Pensioner &le; 0.5<br/>gini = 0.48<br/>samples = 5<br/>value = [2, 3]<br/>class = Reprovado>, fillcolor="#bddef6"] ;
283 -> 285 ;
286 [label=<gini = 0.5<br/>samples = 2<br/>value = [1, 1]<br/>class = Aprovado>, fillcolor="#ffffff"] ;
285 -> 286 ;
287 [label=<idade &le; 58.648<br/>gini = 0.444<br/>samples = 3<br/>value = [1, 2]<br/>class = Reprovado>, fillcolor="#9ccef2"] ;
285 -> 287 ;
288 [label=<gini = 0.0<br/>samples = 1<br/>value = [0, 1]<br/>class = Reprovado>, fillcolor="#399de5"] ;
287 -> 288 ;
289 [label=<gini = 0.5<br/>samples = 2<br/>value = [1, 1]<br/>class = Aprovado>, fillcolor="#ffffff"] ;
287 -> 289 ;
290 [label=<gini = 0.0<br/>samples = 2<br/>value = [2, 0]<br/>class = Aprovado>, fillcolor="#e58139"] ;
282 -> 290 ;
291 [label=<gini = 0.0<br/>samples = 5<br/>value = [5, 0]<br/>class = Aprovado>, fillcolor="#e58139"] ;
281 -> 291 ;
292 [label=<gini = 0.0<br/>samples = 1<br/>value = [0, 1]<br/>class = Reprovado>, fillcolor="#399de5"] ;
280 -> 292 ;
293 [label=<tempo_emprego &le; 1.551<br/>gini = 0.178<br/>samples = 71<br/>value = [64.0, 7.0]<br/>class = Aprovado>, fillcolor="#e88f4f"] ;
265 -> 293 ;
294 [label=<gini = 0.0<br/>samples = 1<br/>value = [0, 1]<br/>class = Reprovado>, fillcolor="#399de5"] ;
293 -> 294 ;
295 [label=<educacao_Lower secondary &le; 0.5<br/>gini = 0.157<br/>samples = 70<br/>value = [64, 6]<br/>class = Aprovado>, fillcolor="#e78d4c"] ;
293 -> 295 ;
296 [label=<possui_fone &le; 0.5<br/>gini = 0.136<br/>samples = 68<br/>value = [63, 5]<br/>class = Aprovado>, fillcolor="#e78b49"] ;
295 -> 296 ;
297 [label=<idade &le; 51.219<br/>gini = 0.18<br/>samples = 50<br/>value = [45, 5]<br/>class = Aprovado>, fillcolor="#e88f4f"] ;
296 -> 297 ;
298 [label=<idade &le; 50.534<br/>gini = 0.234<br/>samples = 37<br/>value = [32, 5]<br/>class = Aprovado>, fillcolor="#e99558"] ;
297 -> 298 ;
299 [label=<idade &le; 47.497<br/>gini = 0.198<br/>samples = 36<br/>value = [32, 4]<br/>class = Aprovado>, fillcolor="#e89152"] ;
298 -> 299 ;
300 [label=<tempo_emprego &le; 2.605<br/>gini = 0.124<br/>samples = 30<br/>value = [28, 2]<br/>class = Aprovado>, fillcolor="#e78a47"] ;
299 -> 300 ;
301 [label=<tempo_emprego &le; 2.193<br/>gini = 0.375<br/>samples = 8<br/>value = [6, 2]<br/>class = Aprovado>, fillcolor="#eeab7b"] ;
300 -> 301 ;
302 [label=<gini = 0.0<br/>samples = 5<br/>value = [5, 0]<br/>class = Aprovado>, fillcolor="#e58139"] ;
301 -> 302 ;
303 [label=<estado_civil_Married &le; 0.5<br/>gini = 0.444<br/>samples = 3<br/>value = [1, 2]<br/>class = Reprovado>, fillcolor="#9ccef2"] ;
301 -> 303 ;
304 [label=<gini = 0.0<br/>samples = 1<br/>value = [0, 1]<br/>class = Reprovado>, fillcolor="#399de5"] ;
303 -> 304 ;
305 [label=<gini = 0.5<br/>samples = 2<br/>value = [1, 1]<br/>class = Aprovado>, fillcolor="#ffffff"] ;
303 -> 305 ;
306 [label=<gini = 0.0<br/>samples = 22<br/>value = [22, 0]<br/>class = Aprovado>, fillcolor="#e58139"] ;
300 -> 306 ;
307 [label=<posse_de_veiculo &le; 0.5<br/>gini = 0.444<br/>samples = 6<br/>value = [4, 2]<br/>class = Aprovado>, fillcolor="#f2c09c"] ;
299 -> 307 ;
308 [label=<idade &le; 49.355<br/>gini = 0.444<br/>samples = 3<br/>value = [1, 2]<br/>class = Reprovado>, fillcolor="#9ccef2"] ;
307 -> 308 ;
309 [label=<gini = 0.0<br/>samples = 2<br/>value = [0, 2]<br/>class = Reprovado>, fillcolor="#399de5"] ;
308 -> 309 ;
310 [label=<gini = 0.0<br/>samples = 1<br/>value = [1, 0]<br/>class = Aprovado>, fillcolor="#e58139"] ;
308 -> 310 ;
311 [label=<gini = 0.0<br/>samples = 3<br/>value = [3, 0]<br/>class = Aprovado>, fillcolor="#e58139"] ;
307 -> 311 ;
312 [label=<gini = 0.0<br/>samples = 1<br/>value = [0, 1]<br/>class = Reprovado>, fillcolor="#399de5"] ;
298 -> 312 ;
313 [label=<gini = 0.0<br/>samples = 13<br/>value = [13, 0]<br/>class = Aprovado>, fillcolor="#e58139"] ;
297 -> 313 ;
314 [label=<gini = 0.0<br/>samples = 18<br/>value = [18, 0]<br/>class = Aprovado>, fillcolor="#e58139"] ;
296 -> 314 ;
315 [label=<idade &le; 43.227<br/>gini = 0.5<br/>samples = 2<br/>value = [1, 1]<br/>class = Aprovado>, fillcolor="#ffffff"] ;
295 -> 315 ;
316 [label=<gini = 0.0<br/>samples = 1<br/>value = [1, 0]<br/>class = Aprovado>, fillcolor="#e58139"] ;
315 -> 316 ;
317 [label=<gini = 0.0<br/>samples = 1<br/>value = [0, 1]<br/>class = Reprovado>, fillcolor="#399de5"] ;
315 -> 317 ;
318 [label=<idade &le; 66.021<br/>gini = 0.278<br/>samples = 30<br/>value = [25, 5]<br/>class = Aprovado>, fillcolor="#ea9a61"] ;
264 -> 318 ;
319 [label=<possui_fone &le; 0.5<br/>gini = 0.191<br/>samples = 28<br/>value = [25, 3]<br/>class = Aprovado>, fillcolor="#e89051"] ;
318 -> 319 ;
320 [label=<gini = 0.0<br/>samples = 18<br/>value = [18, 0]<br/>class = Aprovado>, fillcolor="#e58139"] ;
319 -> 320 ;
321 [label=<tempo_emprego &le; 1.541<br/>gini = 0.42<br/>samples = 10<br/>value = [7, 3]<br/>class = Aprovado>, fillcolor="#f0b78e"] ;
319 -> 321 ;
322 [label=<gini = 0.0<br/>samples = 3<br/>value = [0, 3]<br/>class = Reprovado>, fillcolor="#399de5"] ;
321 -> 322 ;
323 [label=<gini = 0.0<br/>samples = 7<br/>value = [7, 0]<br/>class = Aprovado>, fillcolor="#e58139"] ;
321 -> 323 ;
324 [label=<gini = 0.0<br/>samples = 2<br/>value = [0, 2]<br/>class = Reprovado>, fillcolor="#399de5"] ;
318 -> 324 ;
325 [label=<estado_civil_Widow &le; 0.5<br/>gini = 0.071<br/>samples = 870<br/>value = [838, 32]<br/>class = Aprovado>, fillcolor="#e68641"] ;
263 -> 325 ;
326 [label=<idade &le; 41.907<br/>gini = 0.063<br/>samples = 771<br/>value = [746.0, 25.0]<br/>class = Aprovado>, fillcolor="#e68540"] ;
325 -> 326 ;
327 [label=<gini = 0.0<br/>samples = 80<br/>value = [80, 0]<br/>class = Aprovado>, fillcolor="#e58139"] ;
326 -> 327 ;
328 [label=<idade &le; 41.981<br/>gini = 0.07<br/>samples = 691<br/>value = [666, 25]<br/>class = Aprovado>, fillcolor="#e68640"] ;
326 -> 328 ;
329 [label=<gini = 0.0<br/>samples = 1<br/>value = [0, 1]<br/>class = Reprovado>, fillcolor="#399de5"] ;
328 -> 329 ;
330 [label=<idade &le; 60.322<br/>gini = 0.067<br/>samples = 690<br/>value = [666, 24]<br/>class = Aprovado>, fillcolor="#e68640"] ;
328 -> 330 ;
331 [label=<idade &le; 60.297<br/>gini = 0.083<br/>samples = 483<br/>value = [462, 21]<br/>class = Aprovado>, fillcolor="#e68742"] ;
330 -> 331 ;
332 [label=<idade &le; 59.308<br/>gini = 0.08<br/>samples = 482<br/>value = [462, 20]<br/>class = Aprovado>, fillcolor="#e68642"] ;
331 -> 332 ;
333 [label=<qt_pessoas_residencia &le; 1.5<br/>gini = 0.07<br/>samples = 439<br/>value = [423, 16]<br/>class = Aprovado>, fillcolor="#e68640"] ;
332 -> 333 ;
334 [label=<gini = 0.0<br/>samples = 82<br/>value = [82, 0]<br/>class = Aprovado>, fillcolor="#e58139"] ;
333 -> 334 ;
335 [label=<estado_civil_Single / not married &le; 0.5<br/>gini = 0.086<br/>samples = 357<br/>value = [341, 16]<br/>class = Aprovado>, fillcolor="#e68742"] ;
333 -> 335 ;
336 [label=<tipo_renda_Working &le; 0.5<br/>gini = 0.081<br/>samples = 355<br/>value = [340, 15]<br/>class = Aprovado>, fillcolor="#e68742"] ;
335 -> 336 ;
337 [label=<possui_fone_comercial &le; 0.5<br/>gini = 0.054<br/>samples = 215<br/>value = [209, 6]<br/>class = Aprovado>, fillcolor="#e6853f"] ;
336 -> 337 ;
338 [label=<idade &le; 55.803<br/>gini = 0.039<br/>samples = 202<br/>value = [198, 4]<br/>class = Aprovado>, fillcolor="#e6843d"] ;
337 -> 338 ;
339 [label=<gini = 0.0<br/>samples = 98<br/>value = [98, 0]<br/>class = Aprovado>, fillcolor="#e58139"] ;
338 -> 339 ;
340 [label=<idade &le; 55.826<br/>gini = 0.074<br/>samples = 104<br/>value = [100, 4]<br/>class = Aprovado>, fillcolor="#e68641"] ;
338 -> 340 ;
341 [label=<gini = 0.5<br/>samples = 2<br/>value = [1, 1]<br/>class = Aprovado>, fillcolor="#ffffff"] ;
340 -> 341 ;
342 [label=<idade &le; 58.373<br/>gini = 0.057<br/>samples = 102<br/>value = [99, 3]<br/>class = Aprovado>, fillcolor="#e6853f"] ;
340 -> 342 ;
343 [label=<idade &le; 57.114<br/>gini = 0.03<br/>samples = 66<br/>value = [65, 1]<br/>class = Aprovado>, fillcolor="#e5833c"] ;
342 -> 343 ;
344 [label=<idade &le; 57.11<br/>gini = 0.071<br/>samples = 27<br/>value = [26, 1]<br/>class = Aprovado>, fillcolor="#e68641"] ;
343 -> 344 ;
345 [label=<gini = 0.0<br/>samples = 25<br/>value = [25, 0]<br/>class = Aprovado>, fillcolor="#e58139"] ;
344 -> 345 ;
346 [label=<gini = 0.5<br/>samples = 2<br/>value = [1, 1]<br/>class = Aprovado>, fillcolor="#ffffff"] ;
344 -> 346 ;
347 [label=<gini = 0.0<br/>samples = 39<br/>value = [39, 0]<br/>class = Aprovado>, fillcolor="#e58139"] ;
343 -> 347 ;
348 [label=<idade &le; 58.401<br/>gini = 0.105<br/>samples = 36<br/>value = [34, 2]<br/>class = Aprovado>, fillcolor="#e78845"] ;
342 -> 348 ;
349 [label=<gini = 0.0<br/>samples = 1<br/>value = [0, 1]<br/>class = Reprovado>, fillcolor="#399de5"] ;
348 -> 349 ;
350 [label=<idade &le; 58.748<br/>gini = 0.056<br/>samples = 35<br/>value = [34, 1]<br/>class = Aprovado>, fillcolor="#e6853f"] ;
348 -> 350 ;
351 [label=<idade &le; 58.693<br/>gini = 0.153<br/>samples = 12<br/>value = [11, 1]<br/>class = Aprovado>, fillcolor="#e78c4b"] ;
350 -> 351 ;
352 [label=<gini = 0.0<br/>samples = 11<br/>value = [11, 0]<br/>class = Aprovado>, fillcolor="#e58139"] ;
351 -> 352 ;
353 [label=<gini = 0.0<br/>samples = 1<br/>value = [0, 1]<br/>class = Reprovado>, fillcolor="#399de5"] ;
351 -> 353 ;
354 [label=<gini = 0.0<br/>samples = 23<br/>value = [23, 0]<br/>class = Aprovado>, fillcolor="#e58139"] ;
350 -> 354 ;
355 [label=<idade &le; 45.844<br/>gini = 0.26<br/>samples = 13<br/>value = [11, 2]<br/>class = Aprovado>, fillcolor="#ea985d"] ;
337 -> 355 ;
356 [label=<tempo_emprego &le; 3.532<br/>gini = 0.48<br/>samples = 5<br/>value = [3, 2]<br/>class = Aprovado>, fillcolor="#f6d5bd"] ;
355 -> 356 ;
357 [label=<posse_de_veiculo &le; 0.5<br/>gini = 0.5<br/>samples = 4<br/>value = [2, 2]<br/>class = Aprovado>, fillcolor="#ffffff"] ;
356 -> 357 ;
358 [label=<gini = 0.5<br/>samples = 2<br/>value = [1, 1]<br/>class = Aprovado>, fillcolor="#ffffff"] ;
357 -> 358 ;
359 [label=<gini = 0.5<br/>samples = 2<br/>value = [1, 1]<br/>class = Aprovado>, fillcolor="#ffffff"] ;
357 -> 359 ;
360 [label=<gini = 0.0<br/>samples = 1<br/>value = [1, 0]<br/>class = Aprovado>, fillcolor="#e58139"] ;
356 -> 360 ;
361 [label=<gini = 0.0<br/>samples = 8<br/>value = [8, 0]<br/>class = Aprovado>, fillcolor="#e58139"] ;
355 -> 361 ;
362 [label=<idade &le; 45.366<br/>gini = 0.12<br/>samples = 140<br/>value = [131, 9]<br/>class = Aprovado>, fillcolor="#e78a47"] ;
336 -> 362 ;
363 [label=<gini = 0.0<br/>samples = 25<br/>value = [25, 0]<br/>class = Aprovado>, fillcolor="#e58139"] ;
362 -> 363 ;
364 [label=<idade &le; 45.421<br/>gini = 0.144<br/>samples = 115<br/>value = [106, 9]<br/>class = Aprovado>, fillcolor="#e78c4a"] ;
362 -> 364 ;
365 [label=<gini = 0.5<br/>samples = 2<br/>value = [1, 1]<br/>class = Aprovado>, fillcolor="#ffffff"] ;
364 -> 365 ;
366 [label=<tempo_emprego &le; 4.714<br/>gini = 0.132<br/>samples = 113<br/>value = [105, 8]<br/>class = Aprovado>, fillcolor="#e78b48"] ;
364 -> 366 ;
367 [label=<sexo &le; 0.5<br/>gini = 0.111<br/>samples = 102<br/>value = [96, 6]<br/>class = Aprovado>, fillcolor="#e78945"] ;
366 -> 367 ;
368 [label=<tempo_emprego &le; 0.448<br/>gini = 0.036<br/>samples = 54<br/>value = [53, 1]<br/>class = Aprovado>, fillcolor="#e5833d"] ;
367 -> 368 ;
369 [label=<tempo_emprego &le; 0.364<br/>gini = 0.32<br/>samples = 5<br/>value = [4, 1]<br/>class = Aprovado>, fillcolor="#eca06a"] ;
368 -> 369 ;
370 [label=<gini = 0.0<br/>samples = 4<br/>value = [4, 0]<br/>class = Aprovado>, fillcolor="#e58139"] ;
369 -> 370 ;
371 [label=<gini = 0.0<br/>samples = 1<br/>value = [0, 1]<br/>class = Reprovado>, fillcolor="#399de5"] ;
369 -> 371 ;
372 [label=<gini = 0.0<br/>samples = 49<br/>value = [49, 0]<br/>class = Aprovado>, fillcolor="#e58139"] ;
368 -> 372 ;
373 [label=<tempo_emprego &le; 0.681<br/>gini = 0.187<br/>samples = 48<br/>value = [43, 5]<br/>class = Aprovado>, fillcolor="#e89050"] ;
367 -> 373 ;
374 [label=<tempo_emprego &le; 0.593<br/>gini = 0.5<br/>samples = 2<br/>value = [1, 1]<br/>class = Aprovado>, fillcolor="#ffffff"] ;
373 -> 374 ;
375 [label=<gini = 0.0<br/>samples = 1<br/>value = [1, 0]<br/>class = Aprovado>, fillcolor="#e58139"] ;
374 -> 375 ;
376 [label=<gini = 0.0<br/>samples = 1<br/>value = [0, 1]<br/>class = Reprovado>, fillcolor="#399de5"] ;
374 -> 376 ;
377 [label=<tempo_emprego &le; 2.51<br/>gini = 0.159<br/>samples = 46<br/>value = [42, 4]<br/>class = Aprovado>, fillcolor="#e78d4c"] ;
373 -> 377 ;
378 [label=<gini = 0.0<br/>samples = 19<br/>value = [19, 0]<br/>class = Aprovado>, fillcolor="#e58139"] ;
377 -> 378 ;
379 [label=<tempo_emprego &le; 2.56<br/>gini = 0.252<br/>samples = 27<br/>value = [23, 4]<br/>class = Aprovado>, fillcolor="#ea975b"] ;
377 -> 379 ;
380 [label=<gini = 0.0<br/>samples = 1<br/>value = [0, 1]<br/>class = Reprovado>, fillcolor="#399de5"] ;
379 -> 380 ;
381 [label=<estado_civil_Married &le; 0.5<br/>gini = 0.204<br/>samples = 26<br/>value = [23, 3]<br/>class = Aprovado>, fillcolor="#e89153"] ;
379 -> 381 ;
382 [label=<gini = 0.0<br/>samples = 1<br/>value = [0, 1]<br/>class = Reprovado>, fillcolor="#399de5"] ;
381 -> 382 ;
383 [label=<idade &le; 48.432<br/>gini = 0.147<br/>samples = 25<br/>value = [23, 2]<br/>class = Aprovado>, fillcolor="#e78c4a"] ;
381 -> 383 ;
384 [label=<idade &le; 47.345<br/>gini = 0.346<br/>samples = 9<br/>value = [7, 2]<br/>class = Aprovado>, fillcolor="#eca572"] ;
383 -> 384 ;
385 [label=<gini = 0.0<br/>samples = 6<br/>value = [6, 0]<br/>class = Aprovado>, fillcolor="#e58139"] ;
384 -> 385 ;
386 [label=<tempo_emprego &le; 3.358<br/>gini = 0.444<br/>samples = 3<br/>value = [1, 2]<br/>class = Reprovado>, fillcolor="#9ccef2"] ;
384 -> 386 ;
387 [label=<gini = 0.5<br/>samples = 2<br/>value = [1, 1]<br/>class = Aprovado>, fillcolor="#ffffff"] ;
386 -> 387 ;
388 [label=<gini = 0.0<br/>samples = 1<br/>value = [0, 1]<br/>class = Reprovado>, fillcolor="#399de5"] ;
386 -> 388 ;
389 [label=<gini = 0.0<br/>samples = 16<br/>value = [16, 0]<br/>class = Aprovado>, fillcolor="#e58139"] ;
383 -> 389 ;
390 [label=<tempo_emprego &le; 4.719<br/>gini = 0.298<br/>samples = 11<br/>value = [9, 2]<br/>class = Aprovado>, fillcolor="#eb9d65"] ;
366 -> 390 ;
391 [label=<gini = 0.0<br/>samples = 1<br/>value = [0, 1]<br/>class = Reprovado>, fillcolor="#399de5"] ;
390 -> 391 ;
392 [label=<idade &le; 55.175<br/>gini = 0.18<br/>samples = 10<br/>value = [9, 1]<br/>class = Aprovado>, fillcolor="#e88f4f"] ;
390 -> 392 ;
393 [label=<gini = 0.0<br/>samples = 5<br/>value = [5, 0]<br/>class = Aprovado>, fillcolor="#e58139"] ;
392 -> 393 ;
394 [label=<idade &le; 55.642<br/>gini = 0.32<br/>samples = 5<br/>value = [4, 1]<br/>class = Aprovado>, fillcolor="#eca06a"] ;
392 -> 394 ;
395 [label=<gini = 0.0<br/>samples = 1<br/>value = [0, 1]<br/>class = Reprovado>, fillcolor="#399de5"] ;
394 -> 395 ;
396 [label=<gini = 0.0<br/>samples = 4<br/>value = [4, 0]<br/>class = Aprovado>, fillcolor="#e58139"] ;
394 -> 396 ;
397 [label=<tempo_emprego &le; 3.215<br/>gini = 0.5<br/>samples = 2<br/>value = [1, 1]<br/>class = Aprovado>, fillcolor="#ffffff"] ;
335 -> 397 ;
398 [label=<gini = 0.0<br/>samples = 1<br/>value = [0, 1]<br/>class = Reprovado>, fillcolor="#399de5"] ;
397 -> 398 ;
399 [label=<gini = 0.0<br/>samples = 1<br/>value = [1, 0]<br/>class = Aprovado>, fillcolor="#e58139"] ;
397 -> 399 ;
400 [label=<idade &le; 59.319<br/>gini = 0.169<br/>samples = 43<br/>value = [39, 4]<br/>class = Aprovado>, fillcolor="#e88e4d"] ;
332 -> 400 ;
401 [label=<gini = 0.0<br/>samples = 1<br/>value = [0, 1]<br/>class = Reprovado>, fillcolor="#399de5"] ;
400 -> 401 ;
402 [label=<estado_civil_Separated &le; 0.5<br/>gini = 0.133<br/>samples = 42<br/>value = [39, 3]<br/>class = Aprovado>, fillcolor="#e78b48"] ;
400 -> 402 ;
403 [label=<possui_fone &le; 0.5<br/>gini = 0.1<br/>samples = 38<br/>value = [36, 2]<br/>class = Aprovado>, fillcolor="#e68844"] ;
402 -> 403 ;
404 [label=<gini = 0.0<br/>samples = 25<br/>value = [25, 0]<br/>class = Aprovado>, fillcolor="#e58139"] ;
403 -> 404 ;
405 [label=<idade &le; 59.811<br/>gini = 0.26<br/>samples = 13<br/>value = [11, 2]<br/>class = Aprovado>, fillcolor="#ea985d"] ;
403 -> 405 ;
406 [label=<gini = 0.0<br/>samples = 4<br/>value = [4, 0]<br/>class = Aprovado>, fillcolor="#e58139"] ;
405 -> 406 ;
407 [label=<idade &le; 59.818<br/>gini = 0.346<br/>samples = 9<br/>value = [7, 2]<br/>class = Aprovado>, fillcolor="#eca572"] ;
405 -> 407 ;
408 [label=<gini = 0.0<br/>samples = 1<br/>value = [0, 1]<br/>class = Reprovado>, fillcolor="#399de5"] ;
407 -> 408 ;
409 [label=<idade &le; 60.067<br/>gini = 0.219<br/>samples = 8<br/>value = [7, 1]<br/>class = Aprovado>, fillcolor="#e99355"] ;
407 -> 409 ;
410 [label=<gini = 0.0<br/>samples = 4<br/>value = [4, 0]<br/>class = Aprovado>, fillcolor="#e58139"] ;
409 -> 410 ;
411 [label=<idade &le; 60.116<br/>gini = 0.375<br/>samples = 4<br/>value = [3, 1]<br/>class = Aprovado>, fillcolor="#eeab7b"] ;
409 -> 411 ;
412 [label=<gini = 0.0<br/>samples = 1<br/>value = [0, 1]<br/>class = Reprovado>, fillcolor="#399de5"] ;
411 -> 412 ;
413 [label=<gini = 0.0<br/>samples = 3<br/>value = [3, 0]<br/>class = Aprovado>, fillcolor="#e58139"] ;
411 -> 413 ;
414 [label=<idade &le; 59.693<br/>gini = 0.375<br/>samples = 4<br/>value = [3, 1]<br/>class = Aprovado>, fillcolor="#eeab7b"] ;
402 -> 414 ;
415 [label=<gini = 0.0<br/>samples = 2<br/>value = [2, 0]<br/>class = Aprovado>, fillcolor="#e58139"] ;
414 -> 415 ;
416 [label=<gini = 0.5<br/>samples = 2<br/>value = [1, 1]<br/>class = Aprovado>, fillcolor="#ffffff"] ;
414 -> 416 ;
417 [label=<gini = 0.0<br/>samples = 1<br/>value = [0, 1]<br/>class = Reprovado>, fillcolor="#399de5"] ;
331 -> 417 ;
418 [label=<idade &le; 63.799<br/>gini = 0.029<br/>samples = 207<br/>value = [204, 3]<br/>class = Aprovado>, fillcolor="#e5833c"] ;
330 -> 418 ;
419 [label=<idade &le; 63.738<br/>gini = 0.045<br/>samples = 131<br/>value = [128, 3]<br/>class = Aprovado>, fillcolor="#e6843e"] ;
418 -> 419 ;
420 [label=<idade &le; 62.041<br/>gini = 0.016<br/>samples = 125<br/>value = [124, 1]<br/>class = Aprovado>, fillcolor="#e5823b"] ;
419 -> 420 ;
421 [label=<gini = 0.0<br/>samples = 64<br/>value = [64, 0]<br/>class = Aprovado>, fillcolor="#e58139"] ;
420 -> 421 ;
422 [label=<idade &le; 62.071<br/>gini = 0.032<br/>samples = 61<br/>value = [60, 1]<br/>class = Aprovado>, fillcolor="#e5833c"] ;
420 -> 422 ;
423 [label=<gini = 0.0<br/>samples = 1<br/>value = [0, 1]<br/>class = Reprovado>, fillcolor="#399de5"] ;
422 -> 423 ;
424 [label=<gini = 0.0<br/>samples = 60<br/>value = [60, 0]<br/>class = Aprovado>, fillcolor="#e58139"] ;
422 -> 424 ;
425 [label=<idade &le; 63.748<br/>gini = 0.444<br/>samples = 6<br/>value = [4, 2]<br/>class = Aprovado>, fillcolor="#f2c09c"] ;
419 -> 425 ;
426 [label=<gini = 0.0<br/>samples = 1<br/>value = [0, 1]<br/>class = Reprovado>, fillcolor="#399de5"] ;
425 -> 426 ;
427 [label=<qt_pessoas_residencia &le; 1.5<br/>gini = 0.32<br/>samples = 5<br/>value = [4, 1]<br/>class = Aprovado>, fillcolor="#eca06a"] ;
425 -> 427 ;
428 [label=<idade &le; 63.789<br/>gini = 0.444<br/>samples = 3<br/>value = [2, 1]<br/>class = Aprovado>, fillcolor="#f2c09c"] ;
427 -> 428 ;
429 [label=<gini = 0.0<br/>samples = 1<br/>value = [1, 0]<br/>class = Aprovado>, fillcolor="#e58139"] ;
428 -> 429 ;
430 [label=<gini = 0.5<br/>samples = 2<br/>value = [1, 1]<br/>class = Aprovado>, fillcolor="#ffffff"] ;
428 -> 430 ;
431 [label=<gini = 0.0<br/>samples = 2<br/>value = [2, 0]<br/>class = Aprovado>, fillcolor="#e58139"] ;
427 -> 431 ;
432 [label=<gini = 0.0<br/>samples = 76<br/>value = [76, 0]<br/>class = Aprovado>, fillcolor="#e58139"] ;
418 -> 432 ;
433 [label=<idade &le; 66.612<br/>gini = 0.131<br/>samples = 99<br/>value = [92, 7]<br/>class = Aprovado>, fillcolor="#e78b48"] ;
325 -> 433 ;
434 [label=<possui_email &le; 0.5<br/>gini = 0.106<br/>samples = 89<br/>value = [84, 5]<br/>class = Aprovado>, fillcolor="#e78845"] ;
433 -> 434 ;
435 [label=<sexo &le; 0.5<br/>gini = 0.09<br/>samples = 85<br/>value = [81, 4]<br/>class = Aprovado>, fillcolor="#e68743"] ;
434 -> 435 ;
436 [label=<tempo_emprego &le; 4.156<br/>gini = 0.071<br/>samples = 81<br/>value = [78, 3]<br/>class = Aprovado>, fillcolor="#e68641"] ;
435 -> 436 ;
437 [label=<idade &le; 58.56<br/>gini = 0.051<br/>samples = 77<br/>value = [75, 2]<br/>class = Aprovado>, fillcolor="#e6843e"] ;
436 -> 437 ;
438 [label=<idade &le; 58.386<br/>gini = 0.121<br/>samples = 31<br/>value = [29, 2]<br/>class = Aprovado>, fillcolor="#e78a47"] ;
437 -> 438 ;
439 [label=<idade &le; 56.121<br/>gini = 0.064<br/>samples = 30<br/>value = [29, 1]<br/>class = Aprovado>, fillcolor="#e68540"] ;
438 -> 439 ;
440 [label=<gini = 0.0<br/>samples = 17<br/>value = [17, 0]<br/>class = Aprovado>, fillcolor="#e58139"] ;
439 -> 440 ;
441 [label=<idade &le; 56.477<br/>gini = 0.142<br/>samples = 13<br/>value = [12, 1]<br/>class = Aprovado>, fillcolor="#e78c49"] ;
439 -> 441 ;
442 [label=<gini = 0.5<br/>samples = 2<br/>value = [1, 1]<br/>class = Aprovado>, fillcolor="#ffffff"] ;
441 -> 442 ;
443 [label=<gini = 0.0<br/>samples = 11<br/>value = [11, 0]<br/>class = Aprovado>, fillcolor="#e58139"] ;
441 -> 443 ;
444 [label=<gini = 0.0<br/>samples = 1<br/>value = [0, 1]<br/>class = Reprovado>, fillcolor="#399de5"] ;
438 -> 444 ;
445 [label=<gini = 0.0<br/>samples = 46<br/>value = [46, 0]<br/>class = Aprovado>, fillcolor="#e58139"] ;
437 -> 445 ;
446 [label=<tempo_emprego &le; 4.336<br/>gini = 0.375<br/>samples = 4<br/>value = [3, 1]<br/>class = Aprovado>, fillcolor="#eeab7b"] ;
436 -> 446 ;
447 [label=<gini = 0.0<br/>samples = 1<br/>value = [0, 1]<br/>class = Reprovado>, fillcolor="#399de5"] ;
446 -> 447 ;
448 [label=<gini = 0.0<br/>samples = 3<br/>value = [3, 0]<br/>class = Aprovado>, fillcolor="#e58139"] ;
446 -> 448 ;
449 [label=<idade &le; 61.478<br/>gini = 0.375<br/>samples = 4<br/>value = [3, 1]<br/>class = Aprovado>, fillcolor="#eeab7b"] ;
435 -> 449 ;
450 [label=<gini = 0.0<br/>samples = 3<br/>value = [3, 0]<br/>class = Aprovado>, fillcolor="#e58139"] ;
449 -> 450 ;
451 [label=<gini = 0.0<br/>samples = 1<br/>value = [0, 1]<br/>class = Reprovado>, fillcolor="#399de5"] ;
449 -> 451 ;
452 [label=<posse_de_veiculo &le; 0.5<br/>gini = 0.375<br/>samples = 4<br/>value = [3, 1]<br/>class = Aprovado>, fillcolor="#eeab7b"] ;
434 -> 452 ;
453 [label=<gini = 0.0<br/>samples = 3<br/>value = [3, 0]<br/>class = Aprovado>, fillcolor="#e58139"] ;
452 -> 453 ;
454 [label=<gini = 0.0<br/>samples = 1<br/>value = [0, 1]<br/>class = Reprovado>, fillcolor="#399de5"] ;
452 -> 454 ;
455 [label=<idade &le; 66.749<br/>gini = 0.32<br/>samples = 10<br/>value = [8, 2]<br/>class = Aprovado>, fillcolor="#eca06a"] ;
433 -> 455 ;
456 [label=<possui_fone &le; 0.5<br/>gini = 0.5<br/>samples = 4<br/>value = [2, 2]<br/>class = Aprovado>, fillcolor="#ffffff"] ;
455 -> 456 ;
457 [label=<gini = 0.5<br/>samples = 2<br/>value = [1, 1]<br/>class = Aprovado>, fillcolor="#ffffff"] ;
456 -> 457 ;
458 [label=<gini = 0.5<br/>samples = 2<br/>value = [1, 1]<br/>class = Aprovado>, fillcolor="#ffffff"] ;
456 -> 458 ;
459 [label=<gini = 0.0<br/>samples = 6<br/>value = [6, 0]<br/>class = Aprovado>, fillcolor="#e58139"] ;
455 -> 459 ;
460 [label=<educacao_Lower secondary &le; 0.5<br/>gini = 0.05<br/>samples = 428<br/>value = [417, 11]<br/>class = Aprovado>, fillcolor="#e6843e"] ;
208 -> 460 ;
461 [label=<tipo_residencia_Municipal apartment &le; 0.5<br/>gini = 0.046<br/>samples = 424<br/>value = [414, 10]<br/>class = Aprovado>, fillcolor="#e6843e"] ;
460 -> 461 ;
462 [label=<idade &le; 27.218<br/>gini = 0.042<br/>samples = 418<br/>value = [409, 9]<br/>class = Aprovado>, fillcolor="#e6843d"] ;
461 -> 462 ;
463 [label=<tempo_emprego &le; 0.414<br/>gini = 0.172<br/>samples = 21<br/>value = [19, 2]<br/>class = Aprovado>, fillcolor="#e88e4e"] ;
462 -> 463 ;
464 [label=<gini = 0.0<br/>samples = 1<br/>value = [0, 1]<br/>class = Reprovado>, fillcolor="#399de5"] ;
463 -> 464 ;
465 [label=<idade &le; 27.075<br/>gini = 0.095<br/>samples = 20<br/>value = [19, 1]<br/>class = Aprovado>, fillcolor="#e68843"] ;
463 -> 465 ;
466 [label=<gini = 0.0<br/>samples = 18<br/>value = [18, 0]<br/>class = Aprovado>, fillcolor="#e58139"] ;
465 -> 466 ;
467 [label=<gini = 0.5<br/>samples = 2<br/>value = [1, 1]<br/>class = Aprovado>, fillcolor="#ffffff"] ;
465 -> 467 ;
468 [label=<posse_de_veiculo &le; 0.5<br/>gini = 0.035<br/>samples = 397<br/>value = [390, 7]<br/>class = Aprovado>, fillcolor="#e5833d"] ;
462 -> 468 ;
469 [label=<qt_pessoas_residencia &le; 4.5<br/>gini = 0.068<br/>samples = 200<br/>value = [193.0, 7.0]<br/>class = Aprovado>, fillcolor="#e68640"] ;
468 -> 469 ;
470 [label=<tipo_residencia_With parents &le; 0.5<br/>gini = 0.052<br/>samples = 188<br/>value = [183, 5]<br/>class = Aprovado>, fillcolor="#e6843e"] ;
469 -> 470 ;
471 [label=<idade &le; 52.095<br/>gini = 0.043<br/>samples = 182<br/>value = [178, 4]<br/>class = Aprovado>, fillcolor="#e6843d"] ;
470 -> 471 ;
472 [label=<tempo_emprego &le; 0.511<br/>gini = 0.034<br/>samples = 175<br/>value = [172, 3]<br/>class = Aprovado>, fillcolor="#e5833c"] ;
471 -> 472 ;
473 [label=<tempo_emprego &le; 0.479<br/>gini = 0.105<br/>samples = 18<br/>value = [17, 1]<br/>class = Aprovado>, fillcolor="#e78845"] ;
472 -> 473 ;
474 [label=<gini = 0.0<br/>samples = 16<br/>value = [16, 0]<br/>class = Aprovado>, fillcolor="#e58139"] ;
473 -> 474 ;
475 [label=<gini = 0.5<br/>samples = 2<br/>value = [1, 1]<br/>class = Aprovado>, fillcolor="#ffffff"] ;
473 -> 475 ;
476 [label=<idade &le; 34.897<br/>gini = 0.025<br/>samples = 157<br/>value = [155, 2]<br/>class = Aprovado>, fillcolor="#e5833c"] ;
472 -> 476 ;
477 [label=<idade &le; 34.833<br/>gini = 0.054<br/>samples = 72<br/>value = [70, 2]<br/>class = Aprovado>, fillcolor="#e6853f"] ;
476 -> 477 ;
478 [label=<idade &le; 33.207<br/>gini = 0.028<br/>samples = 71<br/>value = [70, 1]<br/>class = Aprovado>, fillcolor="#e5833c"] ;
477 -> 478 ;
479 [label=<gini = 0.0<br/>samples = 51<br/>value = [51, 0]<br/>class = Aprovado>, fillcolor="#e58139"] ;
478 -> 479 ;
480 [label=<idade &le; 33.288<br/>gini = 0.095<br/>samples = 20<br/>value = [19, 1]<br/>class = Aprovado>, fillcolor="#e68843"] ;
478 -> 480 ;
481 [label=<gini = 0.0<br/>samples = 1<br/>value = [0, 1]<br/>class = Reprovado>, fillcolor="#399de5"] ;
480 -> 481 ;
482 [label=<gini = 0.0<br/>samples = 19<br/>value = [19, 0]<br/>class = Aprovado>, fillcolor="#e58139"] ;
480 -> 482 ;
483 [label=<gini = 0.0<br/>samples = 1<br/>value = [0, 1]<br/>class = Reprovado>, fillcolor="#399de5"] ;
477 -> 483 ;
484 [label=<gini = 0.0<br/>samples = 85<br/>value = [85, 0]<br/>class = Aprovado>, fillcolor="#e58139"] ;
476 -> 484 ;
485 [label=<idade &le; 52.514<br/>gini = 0.245<br/>samples = 7<br/>value = [6, 1]<br/>class = Aprovado>, fillcolor="#e9965a"] ;
471 -> 485 ;
486 [label=<gini = 0.0<br/>samples = 1<br/>value = [0, 1]<br/>class = Reprovado>, fillcolor="#399de5"] ;
485 -> 486 ;
487 [label=<gini = 0.0<br/>samples = 6<br/>value = [6, 0]<br/>class = Aprovado>, fillcolor="#e58139"] ;
485 -> 487 ;
488 [label=<tipo_renda_Working &le; 0.5<br/>gini = 0.278<br/>samples = 6<br/>value = [5, 1]<br/>class = Aprovado>, fillcolor="#ea9a61"] ;
470 -> 488 ;
489 [label=<gini = 0.0<br/>samples = 1<br/>value = [0, 1]<br/>class = Reprovado>, fillcolor="#399de5"] ;
488 -> 489 ;
490 [label=<gini = 0.0<br/>samples = 5<br/>value = [5, 0]<br/>class = Aprovado>, fillcolor="#e58139"] ;
488 -> 490 ;
491 [label=<sexo &le; 0.5<br/>gini = 0.278<br/>samples = 12<br/>value = [10, 2]<br/>class = Aprovado>, fillcolor="#ea9a61"] ;
469 -> 491 ;
492 [label=<idade &le; 34.032<br/>gini = 0.165<br/>samples = 11<br/>value = [10, 1]<br/>class = Aprovado>, fillcolor="#e88e4d"] ;
491 -> 492 ;
493 [label=<tempo_emprego &le; 2.186<br/>gini = 0.375<br/>samples = 4<br/>value = [3, 1]<br/>class = Aprovado>, fillcolor="#eeab7b"] ;
492 -> 493 ;
494 [label=<gini = 0.0<br/>samples = 1<br/>value = [0, 1]<br/>class = Reprovado>, fillcolor="#399de5"] ;
493 -> 494 ;
495 [label=<gini = 0.0<br/>samples = 3<br/>value = [3, 0]<br/>class = Aprovado>, fillcolor="#e58139"] ;
493 -> 495 ;
496 [label=<gini = 0.0<br/>samples = 7<br/>value = [7, 0]<br/>class = Aprovado>, fillcolor="#e58139"] ;
492 -> 496 ;
497 [label=<gini = 0.0<br/>samples = 1<br/>value = [0, 1]<br/>class = Reprovado>, fillcolor="#399de5"] ;
491 -> 497 ;
498 [label=<gini = 0.0<br/>samples = 197<br/>value = [197, 0]<br/>class = Aprovado>, fillcolor="#e58139"] ;
468 -> 498 ;
499 [label=<educacao_Incomplete higher &le; 0.5<br/>gini = 0.278<br/>samples = 6<br/>value = [5, 1]<br/>class = Aprovado>, fillcolor="#ea9a61"] ;
461 -> 499 ;
500 [label=<gini = 0.0<br/>samples = 5<br/>value = [5, 0]<br/>class = Aprovado>, fillcolor="#e58139"] ;
499 -> 500 ;
501 [label=<gini = 0.0<br/>samples = 1<br/>value = [0, 1]<br/>class = Reprovado>, fillcolor="#399de5"] ;
499 -> 501 ;
502 [label=<possui_fone_comercial &le; 0.5<br/>gini = 0.375<br/>samples = 4<br/>value = [3, 1]<br/>class = Aprovado>, fillcolor="#eeab7b"] ;
460 -> 502 ;
503 [label=<gini = 0.0<br/>samples = 3<br/>value = [3, 0]<br/>class = Aprovado>, fillcolor="#e58139"] ;
502 -> 503 ;
504 [label=<gini = 0.0<br/>samples = 1<br/>value = [0, 1]<br/>class = Reprovado>, fillcolor="#399de5"] ;
502 -> 504 ;
505 [label=<gini = 0.5<br/>samples = 2<br/>value = [1, 1]<br/>class = Aprovado>, fillcolor="#ffffff"] ;
1 -> 505 ;
506 [label=<tipo_renda_Pensioner &le; 0.5<br/>gini = 0.067<br/>samples = 2145<br/>value = [2070, 75]<br/>class = Aprovado>, fillcolor="#e68640"] ;
0 -> 506 [labeldistance=2.5, labelangle=-45, headlabel="False"] ;
507 [label=<qtd_filhos &le; 1.5<br/>gini = 0.065<br/>samples = 2142<br/>value = [2070, 72]<br/>class = Aprovado>, fillcolor="#e68540"] ;
506 -> 507 ;
508 [label=<idade &le; 53.151<br/>gini = 0.057<br/>samples = 1862<br/>value = [1807, 55]<br/>class = Aprovado>, fillcolor="#e6853f"] ;
507 -> 508 ;
509 [label=<idade &le; 53.129<br/>gini = 0.065<br/>samples = 1543<br/>value = [1491.0, 52.0]<br/>class = Aprovado>, fillcolor="#e68540"] ;
508 -> 509 ;
510 [label=<tipo_renda_Working &le; 0.5<br/>gini = 0.064<br/>samples = 1541<br/>value = [1490.0, 51.0]<br/>class = Aprovado>, fillcolor="#e68540"] ;
509 -> 510 ;
511 [label=<tempo_emprego &le; 5.377<br/>gini = 0.082<br/>samples = 629<br/>value = [602, 27]<br/>class = Aprovado>, fillcolor="#e68742"] ;
510 -> 511 ;
512 [label=<tempo_emprego &le; 5.358<br/>gini = 0.202<br/>samples = 35<br/>value = [31, 4]<br/>class = Aprovado>, fillcolor="#e89153"] ;
511 -> 512 ;
513 [label=<tipo_renda_State servant &le; 0.5<br/>gini = 0.114<br/>samples = 33<br/>value = [31, 2]<br/>class = Aprovado>, fillcolor="#e78946"] ;
512 -> 513 ;
514 [label=<gini = 0.0<br/>samples = 27<br/>value = [27, 0]<br/>class = Aprovado>, fillcolor="#e58139"] ;
513 -> 514 ;
515 [label=<sexo &le; 0.5<br/>gini = 0.444<br/>samples = 6<br/>value = [4, 2]<br/>class = Aprovado>, fillcolor="#f2c09c"] ;
513 -> 515 ;
516 [label=<tipo_residencia_House / apartment &le; 0.5<br/>gini = 0.444<br/>samples = 3<br/>value = [1, 2]<br/>class = Reprovado>, fillcolor="#9ccef2"] ;
515 -> 516 ;
517 [label=<gini = 0.5<br/>samples = 2<br/>value = [1, 1]<br/>class = Aprovado>, fillcolor="#ffffff"] ;
516 -> 517 ;
518 [label=<gini = 0.0<br/>samples = 1<br/>value = [0, 1]<br/>class = Reprovado>, fillcolor="#399de5"] ;
516 -> 518 ;
519 [label=<gini = 0.0<br/>samples = 3<br/>value = [3, 0]<br/>class = Aprovado>, fillcolor="#e58139"] ;
515 -> 519 ;
520 [label=<gini = 0.0<br/>samples = 2<br/>value = [0, 2]<br/>class = Reprovado>, fillcolor="#399de5"] ;
512 -> 520 ;
521 [label=<idade &le; 25.697<br/>gini = 0.074<br/>samples = 594<br/>value = [571, 23]<br/>class = Aprovado>, fillcolor="#e68641"] ;
511 -> 521 ;
522 [label=<idade &le; 25.459<br/>gini = 0.32<br/>samples = 5<br/>value = [4, 1]<br/>class = Aprovado>, fillcolor="#eca06a"] ;
521 -> 522 ;
523 [label=<gini = 0.0<br/>samples = 3<br/>value = [3, 0]<br/>class = Aprovado>, fillcolor="#e58139"] ;
522 -> 523 ;
524 [label=<gini = 0.5<br/>samples = 2<br/>value = [1, 1]<br/>class = Aprovado>, fillcolor="#ffffff"] ;
522 -> 524 ;
525 [label=<posse_de_veiculo &le; 0.5<br/>gini = 0.072<br/>samples = 589<br/>value = [567, 22]<br/>class = Aprovado>, fillcolor="#e68641"] ;
521 -> 525 ;
526 [label=<qt_pessoas_residencia &le; 2.5<br/>gini = 0.093<br/>samples = 348<br/>value = [331, 17]<br/>class = Aprovado>, fillcolor="#e68743"] ;
525 -> 526 ;
527 [label=<tempo_emprego &le; 8.029<br/>gini = 0.068<br/>samples = 283<br/>value = [273, 10]<br/>class = Aprovado>, fillcolor="#e68640"] ;
526 -> 527 ;
528 [label=<tempo_emprego &le; 7.37<br/>gini = 0.121<br/>samples = 108<br/>value = [101, 7]<br/>class = Aprovado>, fillcolor="#e78a47"] ;
527 -> 528 ;
529 [label=<qtd_filhos &le; 0.5<br/>gini = 0.066<br/>samples = 88<br/>value = [85, 3]<br/>class = Aprovado>, fillcolor="#e68540"] ;
528 -> 529 ;
530 [label=<idade &le; 41.515<br/>gini = 0.048<br/>samples = 81<br/>value = [79, 2]<br/>class = Aprovado>, fillcolor="#e6843e"] ;
529 -> 530 ;
531 [label=<gini = 0.0<br/>samples = 44<br/>value = [44, 0]<br/>class = Aprovado>, fillcolor="#e58139"] ;
530 -> 531 ;
532 [label=<idade &le; 41.734<br/>gini = 0.102<br/>samples = 37<br/>value = [35, 2]<br/>class = Aprovado>, fillcolor="#e68844"] ;
530 -> 532 ;
533 [label=<gini = 0.5<br/>samples = 2<br/>value = [1, 1]<br/>class = Aprovado>, fillcolor="#ffffff"] ;
532 -> 533 ;
534 [label=<tipo_renda_State servant &le; 0.5<br/>gini = 0.056<br/>samples = 35<br/>value = [34, 1]<br/>class = Aprovado>, fillcolor="#e6853f"] ;
532 -> 534 ;
535 [label=<gini = 0.0<br/>samples = 29<br/>value = [29, 0]<br/>class = Aprovado>, fillcolor="#e58139"] ;
534 -> 535 ;
536 [label=<possui_fone_comercial &le; 0.5<br/>gini = 0.278<br/>samples = 6<br/>value = [5, 1]<br/>class = Aprovado>, fillcolor="#ea9a61"] ;
534 -> 536 ;
537 [label=<gini = 0.0<br/>samples = 4<br/>value = [4, 0]<br/>class = Aprovado>, fillcolor="#e58139"] ;
536 -> 537 ;
538 [label=<tempo_emprego &le; 6.156<br/>gini = 0.5<br/>samples = 2<br/>value = [1, 1]<br/>class = Aprovado>, fillcolor="#ffffff"] ;
536 -> 538 ;
539 [label=<gini = 0.0<br/>samples = 1<br/>value = [1, 0]<br/>class = Aprovado>, fillcolor="#e58139"] ;
538 -> 539 ;
540 [label=<gini = 0.0<br/>samples = 1<br/>value = [0, 1]<br/>class = Reprovado>, fillcolor="#399de5"] ;
538 -> 540 ;
541 [label=<qt_pessoas_residencia &le; 1.5<br/>gini = 0.245<br/>samples = 7<br/>value = [6, 1]<br/>class = Aprovado>, fillcolor="#e9965a"] ;
529 -> 541 ;
542 [label=<gini = 0.0<br/>samples = 1<br/>value = [0, 1]<br/>class = Reprovado>, fillcolor="#399de5"] ;
541 -> 542 ;
543 [label=<gini = 0.0<br/>samples = 6<br/>value = [6, 0]<br/>class = Aprovado>, fillcolor="#e58139"] ;
541 -> 543 ;
544 [label=<tempo_emprego &le; 7.477<br/>gini = 0.32<br/>samples = 20<br/>value = [16, 4]<br/>class = Aprovado>, fillcolor="#eca06a"] ;
528 -> 544 ;
545 [label=<idade &le; 37.186<br/>gini = 0.444<br/>samples = 3<br/>value = [1, 2]<br/>class = Reprovado>, fillcolor="#9ccef2"] ;
544 -> 545 ;
546 [label=<gini = 0.5<br/>samples = 2<br/>value = [1, 1]<br/>class = Aprovado>, fillcolor="#ffffff"] ;
545 -> 546 ;
547 [label=<gini = 0.0<br/>samples = 1<br/>value = [0, 1]<br/>class = Reprovado>, fillcolor="#399de5"] ;
545 -> 547 ;
548 [label=<sexo &le; 0.5<br/>gini = 0.208<br/>samples = 17<br/>value = [15, 2]<br/>class = Aprovado>, fillcolor="#e89253"] ;
544 -> 548 ;
549 [label=<gini = 0.0<br/>samples = 11<br/>value = [11, 0]<br/>class = Aprovado>, fillcolor="#e58139"] ;
548 -> 549 ;
550 [label=<tempo_emprego &le; 7.677<br/>gini = 0.444<br/>samples = 6<br/>value = [4, 2]<br/>class = Aprovado>, fillcolor="#f2c09c"] ;
548 -> 550 ;
551 [label=<gini = 0.0<br/>samples = 2<br/>value = [2, 0]<br/>class = Aprovado>, fillcolor="#e58139"] ;
550 -> 551 ;
552 [label=<possui_email &le; 0.5<br/>gini = 0.5<br/>samples = 4<br/>value = [2, 2]<br/>class = Aprovado>, fillcolor="#ffffff"] ;
550 -> 552 ;
553 [label=<posse_de_imovel &le; 0.5<br/>gini = 0.444<br/>samples = 3<br/>value = [1, 2]<br/>class = Reprovado>, fillcolor="#9ccef2"] ;
552 -> 553 ;
554 [label=<gini = 0.5<br/>samples = 2<br/>value = [1, 1]<br/>class = Aprovado>, fillcolor="#ffffff"] ;
553 -> 554 ;
555 [label=<gini = 0.0<br/>samples = 1<br/>value = [0, 1]<br/>class = Reprovado>, fillcolor="#399de5"] ;
553 -> 555 ;
556 [label=<gini = 0.0<br/>samples = 1<br/>value = [1, 0]<br/>class = Aprovado>, fillcolor="#e58139"] ;
552 -> 556 ;
557 [label=<estado_civil_Widow &le; 0.5<br/>gini = 0.034<br/>samples = 175<br/>value = [172, 3]<br/>class = Aprovado>, fillcolor="#e5833c"] ;
527 -> 557 ;
558 [label=<idade &le; 32.364<br/>gini = 0.024<br/>samples = 168<br/>value = [166, 2]<br/>class = Aprovado>, fillcolor="#e5833b"] ;
557 -> 558 ;
559 [label=<possui_email &le; 0.5<br/>gini = 0.153<br/>samples = 12<br/>value = [11, 1]<br/>class = Aprovado>, fillcolor="#e78c4b"] ;
558 -> 559 ;
560 [label=<gini = 0.0<br/>samples = 10<br/>value = [10, 0]<br/>class = Aprovado>, fillcolor="#e58139"] ;
559 -> 560 ;
561 [label=<gini = 0.5<br/>samples = 2<br/>value = [1, 1]<br/>class = Aprovado>, fillcolor="#ffffff"] ;
559 -> 561 ;
562 [label=<idade &le; 50.074<br/>gini = 0.013<br/>samples = 156<br/>value = [155, 1]<br/>class = Aprovado>, fillcolor="#e5823a"] ;
558 -> 562 ;
563 [label=<gini = 0.0<br/>samples = 121<br/>value = [121, 0]<br/>class = Aprovado>, fillcolor="#e58139"] ;
562 -> 563 ;
564 [label=<idade &le; 50.251<br/>gini = 0.056<br/>samples = 35<br/>value = [34, 1]<br/>class = Aprovado>, fillcolor="#e6853f"] ;
562 -> 564 ;
565 [label=<gini = 0.5<br/>samples = 2<br/>value = [1, 1]<br/>class = Aprovado>, fillcolor="#ffffff"] ;
564 -> 565 ;
566 [label=<gini = 0.0<br/>samples = 33<br/>value = [33, 0]<br/>class = Aprovado>, fillcolor="#e58139"] ;
564 -> 566 ;
567 [label=<idade &le; 44.345<br/>gini = 0.245<br/>samples = 7<br/>value = [6, 1]<br/>class = Aprovado>, fillcolor="#e9965a"] ;
557 -> 567 ;
568 [label=<gini = 0.0<br/>samples = 1<br/>value = [0, 1]<br/>class = Reprovado>, fillcolor="#399de5"] ;
567 -> 568 ;
569 [label=<gini = 0.0<br/>samples = 6<br/>value = [6, 0]<br/>class = Aprovado>, fillcolor="#e58139"] ;
567 -> 569 ;
570 [label=<idade &le; 50.712<br/>gini = 0.192<br/>samples = 65<br/>value = [58, 7]<br/>class = Aprovado>, fillcolor="#e89051"] ;
526 -> 570 ;
571 [label=<estado_civil_Single / not married &le; 0.5<br/>gini = 0.17<br/>samples = 64<br/>value = [58, 6]<br/>class = Aprovado>, fillcolor="#e88e4d"] ;
570 -> 571 ;
572 [label=<idade &le; 34.364<br/>gini = 0.146<br/>samples = 63<br/>value = [58, 5]<br/>class = Aprovado>, fillcolor="#e78c4a"] ;
571 -> 572 ;
573 [label=<gini = 0.0<br/>samples = 23<br/>value = [23, 0]<br/>class = Aprovado>, fillcolor="#e58139"] ;
572 -> 573 ;
574 [label=<idade &le; 35.681<br/>gini = 0.219<br/>samples = 40<br/>value = [35, 5]<br/>class = Aprovado>, fillcolor="#e99355"] ;
572 -> 574 ;
575 [label=<tempo_emprego &le; 12.726<br/>gini = 0.5<br/>samples = 4<br/>value = [2, 2]<br/>class = Aprovado>, fillcolor="#ffffff"] ;
574 -> 575 ;
576 [label=<sexo &le; 0.5<br/>gini = 0.444<br/>samples = 3<br/>value = [1, 2]<br/>class = Reprovado>, fillcolor="#9ccef2"] ;
575 -> 576 ;
577 [label=<gini = 0.0<br/>samples = 1<br/>value = [0, 1]<br/>class = Reprovado>, fillcolor="#399de5"] ;
576 -> 577 ;
578 [label=<gini = 0.5<br/>samples = 2<br/>value = [1, 1]<br/>class = Aprovado>, fillcolor="#ffffff"] ;
576 -> 578 ;
579 [label=<gini = 0.0<br/>samples = 1<br/>value = [1, 0]<br/>class = Aprovado>, fillcolor="#e58139"] ;
575 -> 579 ;
580 [label=<educacao_Higher education &le; 0.5<br/>gini = 0.153<br/>samples = 36<br/>value = [33, 3]<br/>class = Aprovado>, fillcolor="#e78c4b"] ;
574 -> 580 ;
581 [label=<idade &le; 44.122<br/>gini = 0.071<br/>samples = 27<br/>value = [26, 1]<br/>class = Aprovado>, fillcolor="#e68641"] ;
580 -> 581 ;
582 [label=<gini = 0.0<br/>samples = 21<br/>value = [21, 0]<br/>class = Aprovado>, fillcolor="#e58139"] ;
581 -> 582 ;
583 [label=<idade &le; 45.671<br/>gini = 0.278<br/>samples = 6<br/>value = [5, 1]<br/>class = Aprovado>, fillcolor="#ea9a61"] ;
581 -> 583 ;
584 [label=<gini = 0.5<br/>samples = 2<br/>value = [1, 1]<br/>class = Aprovado>, fillcolor="#ffffff"] ;
583 -> 584 ;
585 [label=<gini = 0.0<br/>samples = 4<br/>value = [4, 0]<br/>class = Aprovado>, fillcolor="#e58139"] ;
583 -> 585 ;
586 [label=<idade &le; 44.338<br/>gini = 0.346<br/>samples = 9<br/>value = [7, 2]<br/>class = Aprovado>, fillcolor="#eca572"] ;
580 -> 586 ;
587 [label=<sexo &le; 0.5<br/>gini = 0.48<br/>samples = 5<br/>value = [3, 2]<br/>class = Aprovado>, fillcolor="#f6d5bd"] ;
586 -> 587 ;
588 [label=<tempo_emprego &le; 7.89<br/>gini = 0.444<br/>samples = 3<br/>value = [1, 2]<br/>class = Reprovado>, fillcolor="#9ccef2"] ;
587 -> 588 ;
589 [label=<gini = 0.0<br/>samples = 1<br/>value = [1, 0]<br/>class = Aprovado>, fillcolor="#e58139"] ;
588 -> 589 ;
590 [label=<gini = 0.0<br/>samples = 2<br/>value = [0, 2]<br/>class = Reprovado>, fillcolor="#399de5"] ;
588 -> 590 ;
591 [label=<gini = 0.0<br/>samples = 2<br/>value = [2, 0]<br/>class = Aprovado>, fillcolor="#e58139"] ;
587 -> 591 ;
592 [label=<gini = 0.0<br/>samples = 4<br/>value = [4, 0]<br/>class = Aprovado>, fillcolor="#e58139"] ;
586 -> 592 ;
593 [label=<gini = 0.0<br/>samples = 1<br/>value = [0, 1]<br/>class = Reprovado>, fillcolor="#399de5"] ;
571 -> 593 ;
594 [label=<gini = 0.0<br/>samples = 1<br/>value = [0, 1]<br/>class = Reprovado>, fillcolor="#399de5"] ;
570 -> 594 ;
595 [label=<idade &le; 26.948<br/>gini = 0.041<br/>samples = 241<br/>value = [236, 5]<br/>class = Aprovado>, fillcolor="#e6843d"] ;
525 -> 595 ;
596 [label=<possui_fone_comercial &le; 0.5<br/>gini = 0.444<br/>samples = 3<br/>value = [2, 1]<br/>class = Aprovado>, fillcolor="#f2c09c"] ;
595 -> 596 ;
597 [label=<gini = 0.0<br/>samples = 2<br/>value = [2, 0]<br/>class = Aprovado>, fillcolor="#e58139"] ;
596 -> 597 ;
598 [label=<gini = 0.0<br/>samples = 1<br/>value = [0, 1]<br/>class = Reprovado>, fillcolor="#399de5"] ;
596 -> 598 ;
599 [label=<estado_civil_Single / not married &le; 0.5<br/>gini = 0.033<br/>samples = 238<br/>value = [234, 4]<br/>class = Aprovado>, fillcolor="#e5833c"] ;
595 -> 599 ;
600 [label=<tipo_residencia_With parents &le; 0.5<br/>gini = 0.018<br/>samples = 218<br/>value = [216, 2]<br/>class = Aprovado>, fillcolor="#e5823b"] ;
599 -> 600 ;
601 [label=<possui_email &le; 0.5<br/>gini = 0.009<br/>samples = 211<br/>value = [210, 1]<br/>class = Aprovado>, fillcolor="#e5823a"] ;
600 -> 601 ;
602 [label=<gini = 0.0<br/>samples = 188<br/>value = [188, 0]<br/>class = Aprovado>, fillcolor="#e58139"] ;
601 -> 602 ;
603 [label=<sexo &le; 0.5<br/>gini = 0.083<br/>samples = 23<br/>value = [22, 1]<br/>class = Aprovado>, fillcolor="#e68742"] ;
601 -> 603 ;
604 [label=<gini = 0.0<br/>samples = 18<br/>value = [18, 0]<br/>class = Aprovado>, fillcolor="#e58139"] ;
603 -> 604 ;
605 [label=<idade &le; 37.651<br/>gini = 0.32<br/>samples = 5<br/>value = [4, 1]<br/>class = Aprovado>, fillcolor="#eca06a"] ;
603 -> 605 ;
606 [label=<gini = 0.0<br/>samples = 1<br/>value = [0, 1]<br/>class = Reprovado>, fillcolor="#399de5"] ;
605 -> 606 ;
607 [label=<gini = 0.0<br/>samples = 4<br/>value = [4, 0]<br/>class = Aprovado>, fillcolor="#e58139"] ;
605 -> 607 ;
608 [label=<idade &le; 35.821<br/>gini = 0.245<br/>samples = 7<br/>value = [6, 1]<br/>class = Aprovado>, fillcolor="#e9965a"] ;
600 -> 608 ;
609 [label=<qt_pessoas_residencia &le; 2.5<br/>gini = 0.5<br/>samples = 2<br/>value = [1, 1]<br/>class = Aprovado>, fillcolor="#ffffff"] ;
608 -> 609 ;
610 [label=<gini = 0.0<br/>samples = 1<br/>value = [1, 0]<br/>class = Aprovado>, fillcolor="#e58139"] ;
609 -> 610 ;
611 [label=<gini = 0.0<br/>samples = 1<br/>value = [0, 1]<br/>class = Reprovado>, fillcolor="#399de5"] ;
609 -> 611 ;
612 [label=<gini = 0.0<br/>samples = 5<br/>value = [5, 0]<br/>class = Aprovado>, fillcolor="#e58139"] ;
608 -> 612 ;
613 [label=<posse_de_imovel &le; 0.5<br/>gini = 0.18<br/>samples = 20<br/>value = [18, 2]<br/>class = Aprovado>, fillcolor="#e88f4f"] ;
599 -> 613 ;
614 [label=<tempo_emprego &le; 10.256<br/>gini = 0.32<br/>samples = 10<br/>value = [8, 2]<br/>class = Aprovado>, fillcolor="#eca06a"] ;
613 -> 614 ;
615 [label=<idade &le; 36.21<br/>gini = 0.48<br/>samples = 5<br/>value = [3, 2]<br/>class = Aprovado>, fillcolor="#f6d5bd"] ;
614 -> 615 ;
616 [label=<gini = 0.0<br/>samples = 2<br/>value = [2, 0]<br/>class = Aprovado>, fillcolor="#e58139"] ;
615 -> 616 ;
617 [label=<possui_fone_comercial &le; 0.5<br/>gini = 0.444<br/>samples = 3<br/>value = [1, 2]<br/>class = Reprovado>, fillcolor="#9ccef2"] ;
615 -> 617 ;
618 [label=<gini = 0.5<br/>samples = 2<br/>value = [1, 1]<br/>class = Aprovado>, fillcolor="#ffffff"] ;
617 -> 618 ;
619 [label=<gini = 0.0<br/>samples = 1<br/>value = [0, 1]<br/>class = Reprovado>, fillcolor="#399de5"] ;
617 -> 619 ;
620 [label=<gini = 0.0<br/>samples = 5<br/>value = [5, 0]<br/>class = Aprovado>, fillcolor="#e58139"] ;
614 -> 620 ;
621 [label=<gini = 0.0<br/>samples = 10<br/>value = [10, 0]<br/>class = Aprovado>, fillcolor="#e58139"] ;
613 -> 621 ;
622 [label=<idade &le; 52.744<br/>gini = 0.051<br/>samples = 912<br/>value = [888, 24]<br/>class = Aprovado>, fillcolor="#e6843e"] ;
510 -> 622 ;
623 [label=<tempo_emprego &le; 6.623<br/>gini = 0.048<br/>samples = 897<br/>value = [875, 22]<br/>class = Aprovado>, fillcolor="#e6843e"] ;
622 -> 623 ;
624 [label=<gini = 0.0<br/>samples = 198<br/>value = [198, 0]<br/>class = Aprovado>, fillcolor="#e58139"] ;
623 -> 624 ;
625 [label=<tempo_emprego &le; 6.627<br/>gini = 0.061<br/>samples = 699<br/>value = [677, 22]<br/>class = Aprovado>, fillcolor="#e6853f"] ;
623 -> 625 ;
626 [label=<qtd_filhos &le; 0.5<br/>gini = 0.5<br/>samples = 2<br/>value = [1, 1]<br/>class = Aprovado>, fillcolor="#ffffff"] ;
625 -> 626 ;
627 [label=<gini = 0.0<br/>samples = 1<br/>value = [1, 0]<br/>class = Aprovado>, fillcolor="#e58139"] ;
626 -> 627 ;
628 [label=<gini = 0.0<br/>samples = 1<br/>value = [0, 1]<br/>class = Reprovado>, fillcolor="#399de5"] ;
626 -> 628 ;
629 [label=<educacao_Lower secondary &le; 0.5<br/>gini = 0.058<br/>samples = 697<br/>value = [676, 21]<br/>class = Aprovado>, fillcolor="#e6853f"] ;
625 -> 629 ;
630 [label=<idade &le; 48.162<br/>gini = 0.056<br/>samples = 690<br/>value = [670, 20]<br/>class = Aprovado>, fillcolor="#e6853f"] ;
629 -> 630 ;
631 [label=<tipo_residencia_Office apartment &le; 0.5<br/>gini = 0.044<br/>samples = 530<br/>value = [518, 12]<br/>class = Aprovado>, fillcolor="#e6843e"] ;
630 -> 631 ;
632 [label=<idade &le; 41.553<br/>gini = 0.041<br/>samples = 524<br/>value = [513, 11]<br/>class = Aprovado>, fillcolor="#e6843d"] ;
631 -> 632 ;
633 [label=<idade &le; 41.53<br/>gini = 0.057<br/>samples = 338<br/>value = [328, 10]<br/>class = Aprovado>, fillcolor="#e6853f"] ;
632 -> 633 ;
634 [label=<tempo_emprego &le; 17.104<br/>gini = 0.052<br/>samples = 337<br/>value = [328, 9]<br/>class = Aprovado>, fillcolor="#e6843e"] ;
633 -> 634 ;
635 [label=<tempo_emprego &le; 10.375<br/>gini = 0.044<br/>samples = 313<br/>value = [306, 7]<br/>class = Aprovado>, fillcolor="#e6843e"] ;
634 -> 635 ;
636 [label=<tempo_emprego &le; 10.262<br/>gini = 0.066<br/>samples = 204<br/>value = [197.0, 7.0]<br/>class = Aprovado>, fillcolor="#e68540"] ;
635 -> 636 ;
637 [label=<posse_de_imovel &le; 0.5<br/>gini = 0.057<br/>samples = 203<br/>value = [197, 6]<br/>class = Aprovado>, fillcolor="#e6853f"] ;
636 -> 637 ;
638 [label=<gini = 0.0<br/>samples = 80<br/>value = [80, 0]<br/>class = Aprovado>, fillcolor="#e58139"] ;
637 -> 638 ;
639 [label=<tipo_residencia_Rented apartment &le; 0.5<br/>gini = 0.093<br/>samples = 123<br/>value = [117, 6]<br/>class = Aprovado>, fillcolor="#e68743"] ;
637 -> 639 ;
640 [label=<tempo_emprego &le; 9.751<br/>gini = 0.08<br/>samples = 120<br/>value = [115, 5]<br/>class = Aprovado>, fillcolor="#e68642"] ;
639 -> 640 ;
641 [label=<tipo_residencia_With parents &le; 0.5<br/>gini = 0.055<br/>samples = 107<br/>value = [104, 3]<br/>class = Aprovado>, fillcolor="#e6853f"] ;
640 -> 641 ;
642 [label=<qt_pessoas_residencia &le; 1.5<br/>gini = 0.04<br/>samples = 98<br/>value = [96.0, 2.0]<br/>class = Aprovado>, fillcolor="#e6843d"] ;
641 -> 642 ;
643 [label=<tempo_emprego &le; 7.473<br/>gini = 0.153<br/>samples = 12<br/>value = [11, 1]<br/>class = Aprovado>, fillcolor="#e78c4b"] ;
642 -> 643 ;
644 [label=<idade &le; 32.436<br/>gini = 0.444<br/>samples = 3<br/>value = [2, 1]<br/>class = Aprovado>, fillcolor="#f2c09c"] ;
643 -> 644 ;
645 [label=<gini = 0.0<br/>samples = 1<br/>value = [1, 0]<br/>class = Aprovado>, fillcolor="#e58139"] ;
644 -> 645 ;
646 [label=<gini = 0.5<br/>samples = 2<br/>value = [1, 1]<br/>class = Aprovado>, fillcolor="#ffffff"] ;
644 -> 646 ;
647 [label=<gini = 0.0<br/>samples = 9<br/>value = [9, 0]<br/>class = Aprovado>, fillcolor="#e58139"] ;
643 -> 647 ;
648 [label=<tempo_emprego &le; 8.527<br/>gini = 0.023<br/>samples = 86<br/>value = [85, 1]<br/>class = Aprovado>, fillcolor="#e5823b"] ;
642 -> 648 ;
649 [label=<gini = 0.0<br/>samples = 60<br/>value = [60, 0]<br/>class = Aprovado>, fillcolor="#e58139"] ;
648 -> 649 ;
650 [label=<tempo_emprego &le; 8.542<br/>gini = 0.074<br/>samples = 26<br/>value = [25, 1]<br/>class = Aprovado>, fillcolor="#e68641"] ;
648 -> 650 ;
651 [label=<gini = 0.0<br/>samples = 1<br/>value = [0, 1]<br/>class = Reprovado>, fillcolor="#399de5"] ;
650 -> 651 ;
652 [label=<gini = 0.0<br/>samples = 25<br/>value = [25, 0]<br/>class = Aprovado>, fillcolor="#e58139"] ;
650 -> 652 ;
653 [label=<tempo_emprego &le; 7.008<br/>gini = 0.198<br/>samples = 9<br/>value = [8, 1]<br/>class = Aprovado>, fillcolor="#e89152"] ;
641 -> 653 ;
654 [label=<gini = 0.5<br/>samples = 2<br/>value = [1, 1]<br/>class = Aprovado>, fillcolor="#ffffff"] ;
653 -> 654 ;
655 [label=<gini = 0.0<br/>samples = 7<br/>value = [7, 0]<br/>class = Aprovado>, fillcolor="#e58139"] ;
653 -> 655 ;
656 [label=<tempo_emprego &le; 9.804<br/>gini = 0.26<br/>samples = 13<br/>value = [11, 2]<br/>class = Aprovado>, fillcolor="#ea985d"] ;
640 -> 656 ;
657 [label=<gini = 0.0<br/>samples = 1<br/>value = [0, 1]<br/>class = Reprovado>, fillcolor="#399de5"] ;
656 -> 657 ;
658 [label=<qt_pessoas_residencia &le; 2.5<br/>gini = 0.153<br/>samples = 12<br/>value = [11, 1]<br/>class = Aprovado>, fillcolor="#e78c4b"] ;
656 -> 658 ;
659 [label=<idade &le; 34.768<br/>gini = 0.375<br/>samples = 4<br/>value = [3, 1]<br/>class = Aprovado>, fillcolor="#eeab7b"] ;
658 -> 659 ;
660 [label=<gini = 0.0<br/>samples = 3<br/>value = [3, 0]<br/>class = Aprovado>, fillcolor="#e58139"] ;
659 -> 660 ;
661 [label=<gini = 0.0<br/>samples = 1<br/>value = [0, 1]<br/>class = Reprovado>, fillcolor="#399de5"] ;
659 -> 661 ;
662 [label=<gini = 0.0<br/>samples = 8<br/>value = [8, 0]<br/>class = Aprovado>, fillcolor="#e58139"] ;
658 -> 662 ;
663 [label=<tempo_emprego &le; 7.316<br/>gini = 0.444<br/>samples = 3<br/>value = [2, 1]<br/>class = Aprovado>, fillcolor="#f2c09c"] ;
639 -> 663 ;
664 [label=<sexo &le; 0.5<br/>gini = 0.5<br/>samples = 2<br/>value = [1, 1]<br/>class = Aprovado>, fillcolor="#ffffff"] ;
663 -> 664 ;
665 [label=<gini = 0.0<br/>samples = 1<br/>value = [1, 0]<br/>class = Aprovado>, fillcolor="#e58139"] ;
664 -> 665 ;
666 [label=<gini = 0.0<br/>samples = 1<br/>value = [0, 1]<br/>class = Reprovado>, fillcolor="#399de5"] ;
664 -> 666 ;
667 [label=<gini = 0.0<br/>samples = 1<br/>value = [1, 0]<br/>class = Aprovado>, fillcolor="#e58139"] ;
663 -> 667 ;
668 [label=<gini = 0.0<br/>samples = 1<br/>value = [0, 1]<br/>class = Reprovado>, fillcolor="#399de5"] ;
636 -> 668 ;
669 [label=<gini = 0.0<br/>samples = 109<br/>value = [109, 0]<br/>class = Aprovado>, fillcolor="#e58139"] ;
635 -> 669 ;
670 [label=<tempo_emprego &le; 17.258<br/>gini = 0.153<br/>samples = 24<br/>value = [22, 2]<br/>class = Aprovado>, fillcolor="#e78c4b"] ;
634 -> 670 ;
671 [label=<gini = 0.0<br/>samples = 1<br/>value = [0, 1]<br/>class = Reprovado>, fillcolor="#399de5"] ;
670 -> 671 ;
672 [label=<educacao_Higher education &le; 0.5<br/>gini = 0.083<br/>samples = 23<br/>value = [22, 1]<br/>class = Aprovado>, fillcolor="#e68742"] ;
670 -> 672 ;
673 [label=<gini = 0.0<br/>samples = 18<br/>value = [18, 0]<br/>class = Aprovado>, fillcolor="#e58139"] ;
672 -> 673 ;
674 [label=<tempo_emprego &le; 18.801<br/>gini = 0.32<br/>samples = 5<br/>value = [4, 1]<br/>class = Aprovado>, fillcolor="#eca06a"] ;
672 -> 674 ;
675 [label=<estado_civil_Separated &le; 0.5<br/>gini = 0.444<br/>samples = 3<br/>value = [2, 1]<br/>class = Aprovado>, fillcolor="#f2c09c"] ;
674 -> 675 ;
676 [label=<gini = 0.5<br/>samples = 2<br/>value = [1, 1]<br/>class = Aprovado>, fillcolor="#ffffff"] ;
675 -> 676 ;
677 [label=<gini = 0.0<br/>samples = 1<br/>value = [1, 0]<br/>class = Aprovado>, fillcolor="#e58139"] ;
675 -> 677 ;
678 [label=<gini = 0.0<br/>samples = 2<br/>value = [2, 0]<br/>class = Aprovado>, fillcolor="#e58139"] ;
674 -> 678 ;
679 [label=<gini = 0.0<br/>samples = 1<br/>value = [0, 1]<br/>class = Reprovado>, fillcolor="#399de5"] ;
633 -> 679 ;
680 [label=<qt_pessoas_residencia &le; 2.5<br/>gini = 0.011<br/>samples = 186<br/>value = [185, 1]<br/>class = Aprovado>, fillcolor="#e5823a"] ;
632 -> 680 ;
681 [label=<gini = 0.0<br/>samples = 150<br/>value = [150, 0]<br/>class = Aprovado>, fillcolor="#e58139"] ;
680 -> 681 ;
682 [label=<idade &le; 45.592<br/>gini = 0.054<br/>samples = 36<br/>value = [35, 1]<br/>class = Aprovado>, fillcolor="#e6853f"] ;
680 -> 682 ;
683 [label=<gini = 0.0<br/>samples = 29<br/>value = [29, 0]<br/>class = Aprovado>, fillcolor="#e58139"] ;
682 -> 683 ;
684 [label=<idade &le; 45.736<br/>gini = 0.245<br/>samples = 7<br/>value = [6, 1]<br/>class = Aprovado>, fillcolor="#e9965a"] ;
682 -> 684 ;
685 [label=<gini = 0.5<br/>samples = 2<br/>value = [1, 1]<br/>class = Aprovado>, fillcolor="#ffffff"] ;
684 -> 685 ;
686 [label=<gini = 0.0<br/>samples = 5<br/>value = [5, 0]<br/>class = Aprovado>, fillcolor="#e58139"] ;
684 -> 686 ;
687 [label=<idade &le; 37.966<br/>gini = 0.278<br/>samples = 6<br/>value = [5, 1]<br/>class = Aprovado>, fillcolor="#ea9a61"] ;
631 -> 687 ;
688 [label=<possui_fone &le; 0.5<br/>gini = 0.444<br/>samples = 3<br/>value = [2, 1]<br/>class = Aprovado>, fillcolor="#f2c09c"] ;
687 -> 688 ;
689 [label=<gini = 0.0<br/>samples = 1<br/>value = [1, 0]<br/>class = Aprovado>, fillcolor="#e58139"] ;
688 -> 689 ;
690 [label=<gini = 0.5<br/>samples = 2<br/>value = [1, 1]<br/>class = Aprovado>, fillcolor="#ffffff"] ;
688 -> 690 ;
691 [label=<gini = 0.0<br/>samples = 3<br/>value = [3, 0]<br/>class = Aprovado>, fillcolor="#e58139"] ;
687 -> 691 ;
692 [label=<idade &le; 48.181<br/>gini = 0.095<br/>samples = 160<br/>value = [152, 8]<br/>class = Aprovado>, fillcolor="#e68843"] ;
630 -> 692 ;
693 [label=<estado_civil_Single / not married &le; 0.5<br/>gini = 0.444<br/>samples = 3<br/>value = [1, 2]<br/>class = Reprovado>, fillcolor="#9ccef2"] ;
692 -> 693 ;
694 [label=<gini = 0.5<br/>samples = 2<br/>value = [1, 1]<br/>class = Aprovado>, fillcolor="#ffffff"] ;
693 -> 694 ;
695 [label=<gini = 0.0<br/>samples = 1<br/>value = [0, 1]<br/>class = Reprovado>, fillcolor="#399de5"] ;
693 -> 695 ;
696 [label=<idade &le; 49.1<br/>gini = 0.074<br/>samples = 157<br/>value = [151, 6]<br/>class = Aprovado>, fillcolor="#e68641"] ;
692 -> 696 ;
697 [label=<idade &le; 48.981<br/>gini = 0.213<br/>samples = 33<br/>value = [29, 4]<br/>class = Aprovado>, fillcolor="#e99254"] ;
696 -> 697 ;
698 [label=<idade &le; 48.626<br/>gini = 0.128<br/>samples = 29<br/>value = [27, 2]<br/>class = Aprovado>, fillcolor="#e78a48"] ;
697 -> 698 ;
699 [label=<idade &le; 48.604<br/>gini = 0.298<br/>samples = 11<br/>value = [9, 2]<br/>class = Aprovado>, fillcolor="#eb9d65"] ;
698 -> 699 ;
700 [label=<posse_de_imovel &le; 0.5<br/>gini = 0.18<br/>samples = 10<br/>value = [9, 1]<br/>class = Aprovado>, fillcolor="#e88f4f"] ;
699 -> 700 ;
701 [label=<posse_de_veiculo &le; 0.5<br/>gini = 0.444<br/>samples = 3<br/>value = [2, 1]<br/>class = Aprovado>, fillcolor="#f2c09c"] ;
700 -> 701 ;
702 [label=<gini = 0.0<br/>samples = 1<br/>value = [0, 1]<br/>class = Reprovado>, fillcolor="#399de5"] ;
701 -> 702 ;
703 [label=<gini = 0.0<br/>samples = 2<br/>value = [2, 0]<br/>class = Aprovado>, fillcolor="#e58139"] ;
701 -> 703 ;
704 [label=<gini = 0.0<br/>samples = 7<br/>value = [7, 0]<br/>class = Aprovado>, fillcolor="#e58139"] ;
700 -> 704 ;
705 [label=<gini = 0.0<br/>samples = 1<br/>value = [0, 1]<br/>class = Reprovado>, fillcolor="#399de5"] ;
699 -> 705 ;
706 [label=<gini = 0.0<br/>samples = 18<br/>value = [18, 0]<br/>class = Aprovado>, fillcolor="#e58139"] ;
698 -> 706 ;
707 [label=<posse_de_imovel &le; 0.5<br/>gini = 0.5<br/>samples = 4<br/>value = [2, 2]<br/>class = Aprovado>, fillcolor="#ffffff"] ;
697 -> 707 ;
708 [label=<gini = 0.0<br/>samples = 1<br/>value = [0, 1]<br/>class = Reprovado>, fillcolor="#399de5"] ;
707 -> 708 ;
709 [label=<tipo_residencia_House / apartment &le; 0.5<br/>gini = 0.444<br/>samples = 3<br/>value = [2, 1]<br/>class = Aprovado>, fillcolor="#f2c09c"] ;
707 -> 709 ;
710 [label=<gini = 0.0<br/>samples = 1<br/>value = [1, 0]<br/>class = Aprovado>, fillcolor="#e58139"] ;
709 -> 710 ;
711 [label=<gini = 0.5<br/>samples = 2<br/>value = [1, 1]<br/>class = Aprovado>, fillcolor="#ffffff"] ;
709 -> 711 ;
712 [label=<tempo_emprego &le; 19.914<br/>gini = 0.032<br/>samples = 124<br/>value = [122, 2]<br/>class = Aprovado>, fillcolor="#e5833c"] ;
696 -> 712 ;
713 [label=<gini = 0.0<br/>samples = 95<br/>value = [95, 0]<br/>class = Aprovado>, fillcolor="#e58139"] ;
712 -> 713 ;
714 [label=<tempo_emprego &le; 22.362<br/>gini = 0.128<br/>samples = 29<br/>value = [27, 2]<br/>class = Aprovado>, fillcolor="#e78a48"] ;
712 -> 714 ;
715 [label=<tempo_emprego &le; 22.334<br/>gini = 0.408<br/>samples = 7<br/>value = [5, 2]<br/>class = Aprovado>, fillcolor="#efb388"] ;
714 -> 715 ;
716 [label=<idade &le; 50.219<br/>gini = 0.278<br/>samples = 6<br/>value = [5, 1]<br/>class = Aprovado>, fillcolor="#ea9a61"] ;
715 -> 716 ;
717 [label=<gini = 0.5<br/>samples = 2<br/>value = [1, 1]<br/>class = Aprovado>, fillcolor="#ffffff"] ;
716 -> 717 ;
718 [label=<gini = 0.0<br/>samples = 4<br/>value = [4, 0]<br/>class = Aprovado>, fillcolor="#e58139"] ;
716 -> 718 ;
719 [label=<gini = 0.0<br/>samples = 1<br/>value = [0, 1]<br/>class = Reprovado>, fillcolor="#399de5"] ;
715 -> 719 ;
720 [label=<gini = 0.0<br/>samples = 22<br/>value = [22, 0]<br/>class = Aprovado>, fillcolor="#e58139"] ;
714 -> 720 ;
721 [label=<tempo_emprego &le; 15.43<br/>gini = 0.245<br/>samples = 7<br/>value = [6, 1]<br/>class = Aprovado>, fillcolor="#e9965a"] ;
629 -> 721 ;
722 [label=<gini = 0.0<br/>samples = 6<br/>value = [6, 0]<br/>class = Aprovado>, fillcolor="#e58139"] ;
721 -> 722 ;
723 [label=<gini = 0.0<br/>samples = 1<br/>value = [0, 1]<br/>class = Reprovado>, fillcolor="#399de5"] ;
721 -> 723 ;
724 [label=<idade &le; 52.758<br/>gini = 0.231<br/>samples = 15<br/>value = [13, 2]<br/>class = Aprovado>, fillcolor="#e99457"] ;
622 -> 724 ;
725 [label=<gini = 0.5<br/>samples = 2<br/>value = [1, 1]<br/>class = Aprovado>, fillcolor="#ffffff"] ;
724 -> 725 ;
726 [label=<tempo_emprego &le; 9.066<br/>gini = 0.142<br/>samples = 13<br/>value = [12, 1]<br/>class = Aprovado>, fillcolor="#e78c49"] ;
724 -> 726 ;
727 [label=<tempo_emprego &le; 8.107<br/>gini = 0.32<br/>samples = 5<br/>value = [4, 1]<br/>class = Aprovado>, fillcolor="#eca06a"] ;
726 -> 727 ;
728 [label=<gini = 0.0<br/>samples = 3<br/>value = [3, 0]<br/>class = Aprovado>, fillcolor="#e58139"] ;
727 -> 728 ;
729 [label=<gini = 0.5<br/>samples = 2<br/>value = [1, 1]<br/>class = Aprovado>, fillcolor="#ffffff"] ;
727 -> 729 ;
730 [label=<gini = 0.0<br/>samples = 8<br/>value = [8, 0]<br/>class = Aprovado>, fillcolor="#e58139"] ;
726 -> 730 ;
731 [label=<estado_civil_Single / not married &le; 0.5<br/>gini = 0.5<br/>samples = 2<br/>value = [1, 1]<br/>class = Aprovado>, fillcolor="#ffffff"] ;
509 -> 731 ;
732 [label=<gini = 0.0<br/>samples = 1<br/>value = [1, 0]<br/>class = Aprovado>, fillcolor="#e58139"] ;
731 -> 732 ;
733 [label=<gini = 0.0<br/>samples = 1<br/>value = [0, 1]<br/>class = Reprovado>, fillcolor="#399de5"] ;
731 -> 733 ;
734 [label=<idade &le; 55.586<br/>gini = 0.019<br/>samples = 319<br/>value = [316, 3]<br/>class = Aprovado>, fillcolor="#e5823b"] ;
508 -> 734 ;
735 [label=<gini = 0.0<br/>samples = 132<br/>value = [132, 0]<br/>class = Aprovado>, fillcolor="#e58139"] ;
734 -> 735 ;
736 [label=<idade &le; 55.607<br/>gini = 0.032<br/>samples = 187<br/>value = [184.0, 3.0]<br/>class = Aprovado>, fillcolor="#e5833c"] ;
734 -> 736 ;
737 [label=<gini = 0.0<br/>samples = 1<br/>value = [0, 1]<br/>class = Reprovado>, fillcolor="#399de5"] ;
736 -> 737 ;
738 [label=<tempo_emprego &le; 14.937<br/>gini = 0.021<br/>samples = 186<br/>value = [184, 2]<br/>class = Aprovado>, fillcolor="#e5823b"] ;
736 -> 738 ;
